{"learner":{"attributes":{"scikit_learn":"{\"_estimator_type\": \"classifier\"}"},"feature_names":[],"feature_types":[],"gradient_booster":{"model":{"gbtree_model_param":{"num_parallel_tree":"1","num_trees":"300"},"iteration_indptr":[0,1,2,3,4,5,6,7,8,9,10,11,12,13,14,15,16,17,18,19,20,21,22,23,24,25,26,27,28,29,30,31,32,33,34,35,36,37,38,39,40,41,42,43,44,45,46,47,48,49,50,51,52,53,54,55,56,57,58,59,60,61,62,63,64,65,66,67,68,69,70,71,72,73,74,75,76,77,78,79,80,81,82,83,84,85,86,87,88,89,90,91,92,93,94,95,96,97,98,99,100,101,102,103,104,105,106,107,108,109,110,111,112,113,114,115,116,117,118,119,120,121,122,123,124,125,126,127,128,129,130,131,132,133,134,135,136,137,138,139,140,141,142,143,144,145,146,147,148,149,150,151,152,153,154,155,156,157,158,159,160,161,162,163,164,165,166,167,168,169,170,171,172,173,174,175,176,177,178,179,180,181,182,183,184,185,186,187,188,189,190,191,192,193,194,195,196,197,198,199,200,201,202,203,204,205,206,207,208,209,210,211,212,213,214,215,216,217,218,219,220,221,222,223,224,225,226,227,228,229,230,231,232,233,234,235,236,237,238,239,240,241,242,243,244,245,246,247,248,249,250,251,252,253,254,255,256,257,258,259,260,261,262,263,264,265,266,267,268,269,270,271,272,273,274,275,276,277,278,279,280,281,282,283,284,285,286,287,288,289,290,291,292,293,294,295,296,297,298,299,300],"tree_info":[0,0,0,0,0,0,0,0,0,0,0,0,0,0,0,0,0,0,0,0,0,0,0,0,0,0,0,0,0,0,0,0,0,0,0,0,0,0,0,0,0,0,0,0,0,0,0,0,0,0,0,0,0,0,0,0,0,0,0,0,0,0,0,0,0,0,0,0,0,0,0,0,0,0,0,0,0,0,0,0,0,0,0,0,0,0,0,0,0,0,0,0,0,0,0,0,0,0,0,0,0,0,0,0,0,0,0,0,0,0,0,0,0,0,0,0,0,0,0,0,0,0,0,0,0,0,0,0,0,0,0,0,0,0,0,0,0,0,0,0,0,0,0,0,0,0,0,0,0,0,0,0,0,0,0,0,0,0,0,0,0,0,0,0,0,0,0,0,0,0,0,0,0,0,0,0,0,0,0,0,0,0,0,0,0,0,0,0,0,0,0,0,0,0,0,0,0,0,0,0,0,0,0,0,0,0,0,0,0,0,0,0,0,0,0,0,0,0,0,0,0,0,0,0,0,0,0,0,0,0,0,0,0,0,0,0,0,0,0,0,0,0,0,0,0,0,0,0,0,0,0,0,0,0,0,0,0,0,0,0,0,0,0,0,0,0,0,0,0,0,0,0,0,0,0,0,0,0,0,0,0,0,0,0,0,0,0,0,0,0,0,0,0,0,0,0,0,0,0,0],"trees":[{"base_weights":[-1.3695469E-3,-2.9397735E-1,2.741646E-1,9.692163E-2,-3.132307E-1,1.813154E0,2.4971591E-1,-7.480502E-1,-2.1068175E-1,4.8130557E-1,9.7455636E-2,9.88256E-1,2.0290226E-1,9.31289E-2,-7.7710736E-1,-1.5207248E0,-1.8801223E-1,-8.559566E-2,8.8584594E-2,-9.913142E-2,1.189077E0,1.0089678E0,1.5197375E-1,-1.2596031E0,-6.630228E-1,8.8093325E-2,-1.7812809E0,-9.21231E-1,-1.4418067E-1,-9.829681E-2,1.3610041E0,1.1879827E0,-7.8438133E-1,-1.524969E0,1.6978347E-1,4.17247E-4,-6.512294E-2,4.046542E-3,-3.753276E-2,7.6344356E-2,-9.48376E-2,-9.402887E-2,-4.357035E-3,-7.730803E-2,-6.1538247E-3,-4.9479973E-2,7.438247E-2,-9.654008E-2,6.554731E-2,-9.895051E-2,9.202735E-2,8.694236E-2,-9.273255E-2,-2.9850025E-2,1.0369769E-2],"categories":[],"categories_nodes":[],"categories_segments":[],"categories_sizes":[],"default_left":[0,0,0,0,0,0,0,0,0,0,0,0,0,0,0,0,0,0,0,0,0,0,0,0,0,0,0,0,0,0,0,0,0,0,0,0,0,0,0,0,0,0,0,0,0,0,0,0,0,0,0,0,0,0,0],"id":0,"left_children":[1,3,5,-1,7,9,11,13,15,17,-1,19,21,-1,23,25,27,-1,-1,-1,29,31,33,35,37,-1,39,41,43,-1,45,47,49,51,53,-1,-1,-1,-1,-1,-1,-1,-1,-1,-1,-1,-1,-1,-1,-1,-1,-1,-1,-1,-1],"loss_changes":[1.5326799E3,3.96875E2,3.6793903E2,0E0,4.0746692E2,2.6756958E1,3.3305188E2,1.3375336E2,2.1943256E2,4.6885178E1,0E0,3.4499384E2,3.7200424E2,0E0,9.415344E1,1.1065494E2,2.3363046E2,0E0,0E0,0E0,2.9480896E2,1.7382965E2,2.549558E2,1.7882019E1,9.118707E1,0E0,4.757437E1,3.2799603E2,2.0291696E2,0E0,1.5368896E2,1.9047498E2,1.5881213E2,9.9764435E1,2.43515E2,0E0,0E0,0E0,0E0,0E0,0E0,0E0,0E0,0E0,0E0,0E0,0E0,0E0,0E0,0E0,0E0,0E0,0E0,0E0,0E0],"parents":[2147483647,0,0,1,1,2,2,4,4,5,5,6,6,7,7,8,8,9,9,11,11,12,12,14,14,15,15,16,16,20,20,21,21,22,22,23,23,24,24,26,26,27,27,28,28,30,30,31,31,32,32,33,33,34,34],"right_children":[2,4,6,-1,8,10,12,14,16,18,-1,20,22,-1,24,26,28,-1,-1,-1,30,32,34,36,38,-1,40,42,44,-1,46,48,50,52,54,-1,-1,-1,-1,-1,-1,-1,-1,-1,-1,-1,-1,-1,-1,-1,-1,-1,-1,-1,-1],"split_conditions":[-7.168461E-2,2.00001E0,2.00001E0,9.692163E-2,-8.680031E-1,2.00001E0,2.00001E0,2.00001E0,2.00001E0,2.00001E0,9.7455636E-2,2.00001E0,2.00001E0,9.31289E-2,-1.5917015E0,2.00001E0,2.00001E0,-8.559566E-2,8.8584594E-2,-9.913142E-2,2.00001E0,7.25499E-1,2.00001E0,2.00001E0,2.00001E0,8.8093325E-2,2.00001E0,-1.5159801E-2,2.00001E0,-9.829681E-2,2.00001E0,2.00001E0,2.00001E0,2.00001E0,-1.6520097E0,4.17247E-4,-6.512294E-2,4.046542E-3,-3.753276E-2,7.6344356E-2,-9.48376E-2,-9.402887E-2,-4.357035E-3,-7.730803E-2,-6.1538247E-3,-4.9479973E-2,7.438247E-2,-9.654008E-2,6.554731E-2,-9.895051E-2,9.202735E-2,8.694236E-2,-9.273255E-2,-2.9850025E-2,1.0369769E-2],"split_indices":[156,87,23,0,154,54,52,59,79,3,0,3,114,0,154,22,65,0,0,0,1,159,69,60,0,0,32,159,107,0,18,6,84,29,154,0,0,0,0,0,0,0,0,0,0,0,0,0,0,0,0,0,0,0,0],"split_type":[0,0,0,0,0,0,0,0,0,0,0,0,0,0,0,0,0,0,0,0,0,0,0,0,0,0,0,0,0,0,0,0,0,0,0,0,0,0,0,0,0,0,0,0,0,0,0,0,0,0,0,0,0,0,0],"sum_hessian":[1.9008354E4,9.218526E3,9.789826E3,7.797273E1,9.140554E3,1.5194687E2,9.63788E3,1.7431404E3,7.397413E3,1.4494931E1,1.3745193E2,5.732995E2,9.06458E3,1.8493532E1,1.7246469E3,1.2470639E2,7.2727065E3,5.2481647E0,9.246766E0,3.5737503E1,5.37562E2,5.37562E2,8.527019E3,3.2788535E2,1.3967616E3,8.746942E0,1.1595945E2,4.0910693E2,6.8635996E3,2.7240475E1,5.1032153E2,4.8907898E2,4.8483044E1,8.871897E1,8.438299E3,1.0746242E1,3.171391E2,1.4719852E2,1.249563E3,3.4987764E0,1.1246067E2,1.8968367E2,2.1942326E2,1.0071478E2,6.762885E3,2.5741E1,4.8458054E2,1.7993708E1,4.7108527E2,3.348829E1,1.4994757E1,7.7472906E0,8.097169E1,3.9386227E2,8.044437E3],"tree_param":{"num_deleted":"0","num_feature":"160","num_nodes":"55","size_leaf_vector":"1"}},{"base_weights":[3.8669067E-3,8.0022264E-1,-1.1045338E0,1.4677608E0,2.6592612E-1,-6.9632286E-1,-1.5214581E0,1.6603471E0,1.0794656E0,7.134512E-2,7.083623E-1,-7.948793E-2,-9.207788E-1,-1.8156366E0,-1.3342493E0,1.7235152E0,-2.876991E-1,5.6169176E-1,1.4464207E0,-9.3335164E-1,1.8078639E-1,1.2368295E-1,9.566964E-1,-4.32405E-1,3.859605E-1,-1.2293372E0,-5.017186E-1,-1.288914E0,-1.8970656E0,-8.0897194E-1,-1.6239036E0,-1.1114548E0,1.7383556E0,2.881986E-1,-5.818872E-1,-1.6355036E0,6.495375E-1,-9.295243E-2,1.5289547E0,9.4947E-2,-1.1340913E0,1.0420517E0,9.9473186E-2,-9.84463E-2,2.939417E-1,1.324131E0,6.347796E-1,3.399585E-1,-6.815385E-1,9.5574325E-1,1.1781915E-1,6.9517165E-1,-1.2817036E0,-8.662336E-2,-1.0136527E0,-7.2868395E-1,-1.6255937E0,7.393594E-2,-1.9070994E0,1.7021523E0,-9.1111845E-1,3.3334753E-1,-1.6641564E0,-9.464877E-2,7.617298E-2,4.035453E-2,8.874693E-2,-2.5754487E-2,2.059899E-2,-1.0731332E-2,-3.9656024E-2,-4.595134E-2,-9.3496256E-2,9.502378E-2,2.3538163E-2,8.905572E-2,-4.7669344E-2,-1.4807068E-2,7.859277E-2,-8.971476E-2,-3.7390556E-2,-8.628848E-2,5.479474E-2,-2.049731E-2,1.1991771E-2,9.199675E-2,6.123874E-3,2.1054607E-3,7.127564E-2,-8.998143E-2,3.4552414E-2,-2.6156907E-3,5.303775E-2,-6.861611E-2,-1.739911E-2,-5.2637108E-2,5.5602115E-2,-7.590994E-2,1.1280297E-2,-9.332715E-2,7.923822E-2,-5.3279996E-2,-8.2668304E-2,-8.703655E-2,1.3956444E-3,-5.5108566E-2,4.7665663E-2,-8.368737E-2,-1.9013746E-2,-8.550679E-2,-3.936579E-3,6.701258E-2,-9.571241E-2,2.482361E-2,9.465267E-2,2.0768985E-2,-5.012082E-2,-9.464099E-2,7.6800905E-2,-2.299721E-2,-8.5883215E-2],"categories":[],"categories_nodes":[],"categories_segments":[],"categories_sizes":[],"default_left":[0,0,0,0,0,0,0,0,0,0,0,0,0,0,0,0,0,0,0,0,0,0,0,0,0,0,0,0,0,0,0,0,0,0,0,0,0,0,0,0,0,0,0,0,0,0,0,0,0,0,0,0,0,0,0,0,0,0,0,0,0,0,0,0,0,0,0,0,0,0,0,0,0,0,0,0,0,0,0,0,0,0,0,0,0,0,0,0,0,0,0,0,0,0,0,0,0,0,0,0,0,0,0,0,0,0,0,0,0,0,0,0,0,0,0,0,0,0,0,0,0],"id":1,"left_children":[1,3,5,7,9,11,13,15,17,19,21,23,25,27,29,31,33,35,37,39,41,43,45,47,49,51,53,55,57,59,61,63,65,67,69,71,73,75,77,-1,79,81,83,-1,85,87,89,91,93,95,97,99,101,103,105,107,109,-1,111,113,115,117,119,-1,-1,-1,-1,-1,-1,-1,-1,-1,-1,-1,-1,-1,-1,-1,-1,-1,-1,-1,-1,-1,-1,-1,-1,-1,-1,-1,-1,-1,-1,-1,-1,-1,-1,-1,-1,-1,-1,-1,-1,-1,-1,-1,-1,-1,-1,-1,-1,-1,-1,-1,-1,-1,-1,-1,-1,-1,-1],"loss_changes":[1.6840508E4,3.959352E3,1.3565068E3,3.6728223E2,5.3092786E2,5.5820386E2,2.1485938E2,4.062412E2,3.106283E2,4.7131335E2,2.7341077E2,1.7706392E2,3.8165552E2,6.324414E1,3.660952E2,1.3630469E2,1.785839E1,1.3260223E2,1.2194092E2,2.4155048E2,2.7055768E2,2.010806E2,1.555426E2,1.18179214E2,7.092177E1,1.7241577E2,2.6668338E2,3.8083496E1,4.767871E1,2.2221832E2,1.2310449E2,3.838964E1,1.0682422E2,3.7891603E0,5.2170696E0,2.72966E0,1.4581467E2,8.188212E1,7.171118E1,0E0,9.90921E1,5.1562195E1,2.5268431E2,0E0,1.3795822E2,8.006641E1,9.80376E1,4.2513954E1,1.0638916E2,4.7833313E1,5.629479E1,1.071781E2,1.3134473E2,1.3159799E2,9.890747E1,2.5692368E1,1.6764954E1,0E0,3.3228516E1,6.880127E0,1.00609985E2,8.9061455E1,9.742969E1,0E0,0E0,0E0,0E0,0E0,0E0,0E0,0E0,0E0,0E0,0E0,0E0,0E0,0E0,0E0,0E0,0E0,0E0,0E0,0E0,0E0,0E0,0E0,0E0,0E0,0E0,0E0,0E0,0E0,0E0,0E0,0E0,0E0,0E0,0E0,0E0,0E0,0E0,0E0,0E0,0E0,0E0,0E0,0E0,0E0,0E0,0E0,0E0,0E0,0E0,0E0,0E0,0E0,0E0,0E0,0E0,0E0,0E0],"parents":[2147483647,0,0,1,1,2,2,3,3,4,4,5,5,6,6,7,7,8,8,9,9,10,10,11,11,12,12,13,13,14,14,15,15,16,16,17,17,18,18,19,19,20,20,21,21,22,22,23,23,24,24,25,25,26,26,27,27,28,28,29,29,30,30,31,31,32,32,33,33,34,34,35,35,36,36,37,37,38,38,40,40,41,41,42,42,44,44,45,45,46,46,47,47,48,48,49,49,50,50,51,51,52,52,53,53,54,54,55,55,56,56,58,58,59,59,60,60,61,61,62,62],"right_children":[2,4,6,8,10,12,14,16,18,20,22,24,26,28,30,32,34,36,38,40,42,44,46,48,50,52,54,56,58,60,62,64,66,68,70,72,74,76,78,-1,80,82,84,-1,86,88,90,92,94,96,98,100,102,104,106,108,110,-1,112,114,116,118,120,-1,-1,-1,-1,-1,-1,-1,-1,-1,-1,-1,-1,-1,-1,-1,-1,-1,-1,-1,-1,-1,-1,-1,-1,-1,-1,-1,-1,-1,-1,-1,-1,-1,-1,-1,-1,-1,-1,-1,-1,-1,-1,-1,-1,-1,-1,-1,-1,-1,-1,-1,-1,-1,-1,-1,-1,-1,-1],"split_conditions":[-9.627537E-2,-2.5948372E-1,7.722911E-2,-3.219665E-1,-5.8713965E-2,-2.3181304E-1,-1.1806086E0,1.6950955E0,-8.0314524E-2,2.00001E0,2.00001E0,-2.4633308E-1,6.8794245E-1,-1.380641E0,-4.1007945E-1,2.00001E0,-1.4202558E0,2.00001E0,2.00001E0,2.00001E0,-8.6564916E-1,2.00001E0,1.841419E-1,-1.2221819E0,-8.4584177E-1,2.00001E0,1.6300805E0,5.354363E-1,2.00001E0,2.00001E0,2.00001E0,2.00001E0,2.00001E0,2.00001E0,1.1932277E1,2.00001E0,2.00001E0,-6.9608115E-2,2.00001E0,9.4947E-2,-1.5159801E-2,2.00001E0,2.208047E-1,-9.84463E-2,2.00001E0,2.00001E0,2.00001E0,-7.134708E-1,2.00001E0,2.00001E0,2.00001E0,2.00001E0,8.3778536E-1,2.00001E0,2.2068164E0,-2.1148841E0,2.2068164E0,7.393594E-2,2.00001E0,-1.5192926E0,2.00001E0,2.00001E0,2.00001E0,-9.464877E-2,7.617298E-2,4.035453E-2,8.874693E-2,-2.5754487E-2,2.059899E-2,-1.0731332E-2,-3.9656024E-2,-4.595134E-2,-9.3496256E-2,9.502378E-2,2.3538163E-2,8.905572E-2,-4.7669344E-2,-1.4807068E-2,7.859277E-2,-8.971476E-2,-3.7390556E-2,-8.628848E-2,5.479474E-2,-2.049731E-2,1.1991771E-2,9.199675E-2,6.123874E-3,2.1054607E-3,7.127564E-2,-8.998143E-2,3.4552414E-2,-2.6156907E-3,5.303775E-2,-6.861611E-2,-1.739911E-2,-5.2637108E-2,5.5602115E-2,-7.590994E-2,1.1280297E-2,-9.332715E-2,7.923822E-2,-5.3279996E-2,-8.2668304E-2,-8.703655E-2,1.3956444E-3,-5.5108566E-2,4.7665663E-2,-8.368737E-2,-1.9013746E-2,-8.550679E-2,-3.936579E-3,6.701258E-2,-9.571241E-2,2.482361E-2,9.465267E-2,2.0768985E-2,-5.012082E-2,-9.464099E-2,7.6800905E-2,-2.299721E-2,-8.5883215E-2],"split_indices":[157,157,157,157,156,153,155,154,156,104,151,155,155,153,153,137,153,65,66,32,153,1,153,153,153,137,153,157,23,137,85,42,65,132,156,151,132,156,38,0,159,115,155,0,35,32,48,155,151,6,150,66,153,3,159,155,159,0,85,153,61,0,141,0,0,0,0,0,0,0,0,0,0,0,0,0,0,0,0,0,0,0,0,0,0,0,0,0,0,0,0,0,0,0,0,0,0,0,0,0,0,0,0,0,0,0,0,0,0,0,0,0,0,0,0,0,0,0,0,0,0],"split_type":[0,0,0,0,0,0,0,0,0,0,0,0,0,0,0,0,0,0,0,0,0,0,0,0,0,0,0,0,0,0,0,0,0,0,0,0,0,0,0,0,0,0,0,0,0,0,0,0,0,0,0,0,0,0,0,0,0,0,0,0,0,0,0,0,0,0,0,0,0,0,0,0,0,0,0,0,0,0,0,0,0,0,0,0,0,0,0,0,0,0,0,0,0,0,0,0,0,0,0,0,0,0,0,0,0,0,0,0,0,0,0,0,0,0,0,0,0,0,0,0,0],"sum_hessian":[1.9076809E4,1.1101187E4,7.975622E3,4.934449E3,6.1667373E3,4.0312715E3,3.9443506E3,3.2962844E3,1.6381647E3,4.283874E3,1.8828632E3,1.0759023E3,2.9553691E3,1.5305541E3,2.4137966E3,3.1928667E3,1.0341777E2,6.8050366E2,9.5766095E2,4.2006348E2,3.8638105E3,5.61757E2,1.3211061E3,6.119638E2,4.6393848E2,1.7009836E3,1.2543855E3,2.0718828E2,1.3233657E3,8.5929346E2,1.5545032E3,1.6242172E1,3.1766245E3,3.497387E1,6.84439E1,2.5483871E1,6.5501984E2,4.8726177E1,9.0893475E2,2.7241781E1,3.9282172E2,3.322992E2,3.5315115E3,4.147188E1,5.2028516E2,6.154829E2,7.0562317E2,1.4916333E2,4.628005E2,1.4764284E2,3.1629565E2,4.4732964E1,1.6562506E3,6.933559E2,5.6102954E2,7.896163E1,1.2822665E2,3.4879668E0,1.3198778E3,3.2975464E1,8.26318E2,3.11789E1,1.5233243E3,1.2743891E1,3.4982822E0,1.20942116E2,3.0556824E3,4.2475767E0,3.0726292E1,2.5728E1,4.27159E1,7.4954524E0,1.7988419E1,8.070082E1,5.74319E2,1.4995422E1,3.3730755E1,2.0739098E1,8.881957E2,1.4365361E2,2.4916809E2,5.748412E0,3.2655078E2,7.624427E2,2.7690688E3,5.0971752E1,4.693134E2,4.5208916E1,5.70274E2,1.5241303E1,6.903819E2,9.7195145E1,5.1968178E1,1.4968788E2,3.1311264E2,1.0245818E1,1.3739702E2,1.8741825E1,2.9755383E2,1.1247091E1,3.348587E1,1.0497432E3,6.065075E2,4.3981827E1,6.493741E2,5.3728973E2,2.3739801E1,2.0244425E1,5.8717205E1,1.2148166E2,6.7449913E0,2.48956E0,1.3173882E3,4.999656E0,2.797581E1,5.298154E1,7.733364E2,1.0734773E1,2.0444128E1,6.521587E1,1.4581084E3],"tree_param":{"num_deleted":"0","num_feature":"160","num_nodes":"121","size_leaf_vector":"1"}},{"base_weights":[6.134519E-3,8.738843E-1,-9.2085177E-1,1.3914641E0,3.2582933E-1,-3.7665227E-1,-1.3390353E0,1.6180441E0,1.0649229E0,1.5123497E-1,8.2113355E-1,4.2868757E-1,-5.124839E-1,-1.0893201E0,-1.6174704E0,1.6827677E0,-1.9551215E-1,5.9795535E-1,1.3579687E0,-7.634429E-1,2.3737322E-1,1.9774325E-1,1.0865523E0,-3.1225762E-1,7.346956E-1,-8.5139996E-1,-1.407146E-1,-5.337422E-1,-1.3524246E0,-1.6603714E0,-3.0605E-1,-1.228827E0,1.6984222E0,3.900697E-1,-5.18833E-1,-1.3702374E0,6.846597E-1,-4.389674E-1,1.4205204E0,9.225815E-2,-8.9793867E-1,-1.000156E0,3.0329734E-1,-2.7421013E-1,1.0838866E0,-9.636416E-2,1.1387758E0,8.8832355E-1,-5.454649E-1,-2.6700976E-1,8.3486086E-1,-5.9649837E-1,-1.2705207E0,4.3293285E-1,-4.4243377E-1,-7.8667575E-1,1.6633536E-1,6.58359E-1,-1.3914261E0,-1.0457737E0,-1.7343159E0,8.652752E-2,-7.8592503E-1,-9.02466E-2,6.745881E-2,4.9619667E-2,8.714269E-2,-3.4953933E-2,2.3558611E-2,-3.823495E-3,-3.8932588E-2,6.707767E-2,-8.015457E-2,-8.788841E-2,3.7903916E-2,5.8664132E-2,-1.00645386E-1,9.611658E-3,7.4435994E-2,9.010699E-2,-5.1043835E-2,8.8205755E-2,-5.933485E-2,-7.365339E-2,1.7435912E-2,4.8366524E-2,-3.1241143E-2,-7.471334E-2,7.9038806E-2,-6.519612E-2,5.9997242E-2,-6.427613E-2,5.411897E-2,-9.218042E-2,-1.9214202E-2,7.367675E-2,-4.392343E-2,-6.126125E-3,4.791983E-2,-5.283782E-2,-1.7643949E-2,8.6277425E-2,-6.538824E-2,-7.47297E-2,3.0598998E-2,5.0887015E-2,-2.555691E-2,1.1278868E-2,-4.7933053E-2,-7.788822E-2,1.800665E-2,-9.029492E-2,8.186169E-2,-3.166332E-2,-7.4635915E-2,-7.0346475E-2,-1.4968191E-2,-9.094394E-2,-7.499213E-2,9.34803E-2,-7.20823E-2],"categories":[],"categories_nodes":[],"categories_segments":[],"categories_sizes":[],"default_left":[0,0,0,0,0,0,0,0,0,0,0,0,0,0,0,0,0,0,0,0,0,0,0,0,0,0,0,0,0,0,0,0,0,0,0,0,0,0,0,0,0,0,0,0,0,0,0,0,0,0,0,0,0,0,0,0,0,0,0,0,0,0,0,0,0,0,0,0,0,0,0,0,0,0,0,0,0,0,0,0,0,0,0,0,0,0,0,0,0,0,0,0,0,0,0,0,0,0,0,0,0,0,0,0,0,0,0,0,0,0,0,0,0,0,0,0,0,0,0,0,0],"id":2,"left_children":[1,3,5,7,9,11,13,15,17,19,21,23,25,27,29,31,33,35,37,39,41,43,45,47,49,51,53,55,57,59,61,63,65,67,69,71,73,75,77,-1,79,81,83,85,87,-1,89,91,93,95,97,99,101,103,105,107,109,111,113,115,117,-1,119,-1,-1,-1,-1,-1,-1,-1,-1,-1,-1,-1,-1,-1,-1,-1,-1,-1,-1,-1,-1,-1,-1,-1,-1,-1,-1,-1,-1,-1,-1,-1,-1,-1,-1,-1,-1,-1,-1,-1,-1,-1,-1,-1,-1,-1,-1,-1,-1,-1,-1,-1,-1,-1,-1,-1,-1,-1,-1],"loss_changes":[1.5310284E4,2.788166E3,2.0937744E3,3.7233398E2,4.1290216E2,4.3780176E2,3.6002637E2,3.5044238E2,2.82989E2,2.7850705E2,2.0571039E2,1.3125009E2,4.3121393E2,4.0070947E2,1.3779102E2,1.3335889E2,1.9831802E1,1.37706E2,1.4376343E2,1.08411514E2,2.6375778E2,1.562418E2,1.3955005E2,4.7970024E1,4.1286224E1,1.9053894E2,2.829588E2,1.5670343E2,1.4702002E2,1.06351074E2,7.8659195E1,2.617219E1,8.814746E1,3.6376066E0,7.667036E0,2.3714386E1,1.3910349E2,1.1300679E2,1.0282178E2,0E0,9.811328E1,8.643233E1,2.479494E2,1.0685988E2,1.6861919E2,0E0,1.2983203E2,1.3188871E1,2.9135765E1,4.169539E1,4.414923E1,1.24684235E2,7.771973E1,1.9542888E2,1.079751E2,1.13328186E2,7.924877E1,9.0100914E1,1.3942773E2,6.916049E1,3.9365234E1,0E0,1.15354065E2,0E0,0E0,0E0,0E0,0E0,0E0,0E0,0E0,0E0,0E0,0E0,0E0,0E0,0E0,0E0,0E0,0E0,0E0,0E0,0E0,0E0,0E0,0E0,0E0,0E0,0E0,0E0,0E0,0E0,0E0,0E0,0E0,0E0,0E0,0E0,0E0,0E0,0E0,0E0,0E0,0E0,0E0,0E0,0E0,0E0,0E0,0E0,0E0,0E0,0E0,0E0,0E0,0E0,0E0,0E0,0E0,0E0,0E0],"parents":[2147483647,0,0,1,1,2,2,3,3,4,4,5,5,6,6,7,7,8,8,9,9,10,10,11,11,12,12,13,13,14,14,15,15,16,16,17,17,18,18,19,19,20,20,21,21,22,22,23,23,24,24,25,25,26,26,27,27,28,28,29,29,30,30,31,31,32,32,33,33,34,34,35,35,36,36,37,37,38,38,40,40,41,41,42,42,43,43,44,44,46,46,47,47,48,48,49,49,50,50,51,51,52,52,53,53,54,54,55,55,56,56,57,57,58,58,59,59,60,60,62,62],"right_children":[2,4,6,8,10,12,14,16,18,20,22,24,26,28,30,32,34,36,38,40,42,44,46,48,50,52,54,56,58,60,62,64,66,68,70,72,74,76,78,-1,80,82,84,86,88,-1,90,92,94,96,98,100,102,104,106,108,110,112,114,116,118,-1,120,-1,-1,-1,-1,-1,-1,-1,-1,-1,-1,-1,-1,-1,-1,-1,-1,-1,-1,-1,-1,-1,-1,-1,-1,-1,-1,-1,-1,-1,-1,-1,-1,-1,-1,-1,-1,-1,-1,-1,-1,-1,-1,-1,-1,-1,-1,-1,-1,-1,-1,-1,-1,-1,-1,-1,-1,-1,-1],"split_conditions":[-1.2885448E-1,-2.5452477E-1,5.01168E-3,-3.3625996E-1,-5.466481E-2,-6.6757536E-1,2.1938957E-1,1.6950955E0,-8.219108E-2,2.00001E0,2.00001E0,-7.134708E-1,6.8794245E-1,-2.714278E-1,2.2068164E0,2.00001E0,-1.4202558E0,2.00001E0,2.00001E0,2.00001E0,2.00001E0,7.216129E-1,2.00001E0,-1.5192926E0,2.00001E0,5.406747E-1,1.0358591E0,-2.4633308E-1,2.00001E0,-1.380641E0,2.00001E0,2.00001E0,2.00001E0,2.00001E0,1.1932277E1,2.00001E0,2.00001E0,2.00001E0,2.00001E0,9.225815E-2,2.00001E0,-1.3483456E0,2.00001E0,-1.1005955E0,2.00001E0,-9.636416E-2,2.00001E0,2.00001E0,2.00001E0,-1.5159801E-2,2.00001E0,2.00001E0,2.00001E0,2.00001E0,2.00001E0,-1.3410262E0,2.00001E0,2.00001E0,2.00001E0,-1.1806086E0,-7.134708E-1,8.652752E-2,2.00001E0,-9.02466E-2,6.745881E-2,4.9619667E-2,8.714269E-2,-3.4953933E-2,2.3558611E-2,-3.823495E-3,-3.8932588E-2,6.707767E-2,-8.015457E-2,-8.788841E-2,3.7903916E-2,5.8664132E-2,-1.00645386E-1,9.611658E-3,7.4435994E-2,9.010699E-2,-5.1043835E-2,8.8205755E-2,-5.933485E-2,-7.365339E-2,1.7435912E-2,4.8366524E-2,-3.1241143E-2,-7.471334E-2,7.9038806E-2,-6.519612E-2,5.9997242E-2,-6.427613E-2,5.411897E-2,-9.218042E-2,-1.9214202E-2,7.367675E-2,-4.392343E-2,-6.126125E-3,4.791983E-2,-5.283782E-2,-1.7643949E-2,8.6277425E-2,-6.538824E-2,-7.47297E-2,3.0598998E-2,5.0887015E-2,-2.555691E-2,1.1278868E-2,-4.7933053E-2,-7.788822E-2,1.800665E-2,-9.029492E-2,8.186169E-2,-3.166332E-2,-7.4635915E-2,-7.0346475E-2,-1.4968191E-2,-9.094394E-2,-7.499213E-2,9.34803E-2,-7.20823E-2],"split_indices":[157,157,157,157,156,153,157,154,156,3,151,155,155,153,159,137,153,65,79,78,1,158,51,153,150,153,153,155,85,153,5,9,37,150,156,32,9,18,66,0,89,159,11,158,106,0,28,112,65,159,8,151,55,3,137,153,29,0,35,155,155,0,39,0,0,0,0,0,0,0,0,0,0,0,0,0,0,0,0,0,0,0,0,0,0,0,0,0,0,0,0,0,0,0,0,0,0,0,0,0,0,0,0,0,0,0,0,0,0,0,0,0,0,0,0,0,0,0,0,0,0],"split_type":[0,0,0,0,0,0,0,0,0,0,0,0,0,0,0,0,0,0,0,0,0,0,0,0,0,0,0,0,0,0,0,0,0,0,0,0,0,0,0,0,0,0,0,0,0,0,0,0,0,0,0,0,0,0,0,0,0,0,0,0,0,0,0,0,0,0,0,0,0,0,0,0,0,0,0,0,0,0,0,0,0,0,0,0,0,0,0,0,0,0,0,0,0,0,0,0,0,0,0,0,0,0,0,0,0,0,0,0,0,0,0,0,0,0,0,0,0,0,0,0,0],"sum_hessian":[1.9031355E4,9.829778E3,9.201576E3,5.054655E3,4.775124E3,3.9991794E3,5.2023975E3,2.9817366E3,2.0729182E3,3.531558E3,1.243566E3,5.7685785E2,3.4223215E3,2.7452368E3,2.4571606E3,2.8790586E3,1.026779E2,8.0044775E2,1.2724705E3,3.032774E2,3.2282805E3,3.7187833E2,8.716877E2,1.6860056E2,4.0825732E2,1.7895885E3,1.632733E3,8.8322546E2,1.8620112E3,2.3790671E3,7.809345E1,1.49823675E1,2.8640762E3,3.645182E1,6.622608E1,3.31495E1,7.672983E2,4.2602505E1,1.229868E3,1.4246237E1,2.890312E2,1.6255838E2,3.0657222E3,2.4309715E2,1.2878117E2,1.4235746E1,8.574519E2,2.6966152E1,1.416344E2,3.696112E1,3.712962E2,1.1143092E3,6.752793E2,5.626164E2,1.0701166E3,6.487225E2,2.3450298E2,3.5126465E1,1.8268848E3,2.5712085E2,2.1219463E3,1.4394906E1,6.3698547E1,1.2490904E1,2.491464E0,1.7095132E2,2.693125E3,1.9981687E0,3.445365E1,2.4983652E1,4.1242428E1,2.2448533E0,3.0904648E1,2.1722162E1,7.455761E2,2.1170883E1,2.1431623E1,6.4895836E1,1.1649722E3,1.1992026E1,2.7703915E2,9.7418E0,1.5281659E2,7.5651146E1,2.990071E3,5.3145782E1,1.8995137E2,2.0485123E1,1.0829606E2,2.0451033E1,8.3700085E2,1.749004E0,2.5217148E1,1.4490489E1,1.27143906E2,9.242387E0,2.7718733E1,4.243549E1,3.2886072E2,3.845189E2,7.297902E2,7.734723E0,6.675446E2,4.7194786E1,5.1542163E2,4.746794E1,1.0226486E3,9.416782E1,5.545546E2,2.2984627E1,2.1151836E2,9.746181E0,2.5380285E1,2.1616527E2,1.6107196E3,1.7268234E2,8.4438515E1,1.5545422E3,5.6740405E2,1.2247509E1,5.145104E1],"tree_param":{"num_deleted":"0","num_feature":"160","num_nodes":"121","size_leaf_vector":"1"}},{"base_weights":[-1.6157323E-3,-1.1784241E0,2.3777604E-1,2.4340023E-1,-1.441683E0,9.7894514E-1,-1.8075532E-1,1.4217126E0,-1.5648778E-1,-1.111205E0,-1.6575613E0,6.185656E-1,1.314102E0,-8.202655E-1,2.5055343E-1,-5.673616E-2,1.4559997E0,-1.0532969E0,3.4618893E-1,-1.6952254E0,-7.5067353E-1,8.756573E-2,-1.6764365E0,1.3909227E0,1.291995E-1,1.3569896E0,-3.304298E-1,-4.4473165E-1,-1.253257E0,6.086837E-1,-5.426679E-1,-5.238536E-2,1.4894011E0,-1.6089088E0,-6.186955E-1,-7.402538E-1,4.6224815E-1,5.2491393E-2,-1.7344583E0,-1.6765125E0,-6.4012516E-1,9.457286E-1,-1.6850749E0,1.6863326E0,1.2250423E0,-2.8345516E-1,4.604035E-1,1.5813403E0,1.1251634E0,2.5035638E-1,-8.1496066E-1,-9.3935966E-1,2.2622284E-1,8.7166554E-1,-1.2850919E0,8.385115E-1,2.802261E-1,-2.9610273E-1,-1.1349671E0,8.6207286E-2,5.632295E-2,1.7116522E-2,-8.835425E-2,-7.88395E-2,-1.9872962E-2,-8.736601E-2,1.3435652E-2,-7.9978235E-2,2.5646536E-2,8.755601E-2,-7.555786E-2,-4.0861797E-2,-9.024688E-2,1.5622413E-3,-9.1815375E-2,-3.5294008E-2,4.324968E-2,8.494753E-2,-5.302986E-2,-6.258782E-2,-8.679843E-2,8.4800184E-2,1.2671907E-2,2.5584841E-2,6.476971E-2,-1.864103E-3,-4.2664688E-2,-4.19074E-2,2.7304858E-2,5.65044E-3,8.0222495E-2,4.0653136E-2,6.877473E-2,1.5940554E-3,4.3041732E-2,-2.4854854E-2,-6.274418E-2,-6.6747926E-2,-3.3579614E-2,8.725204E-3,8.111493E-2,9.076069E-2,-8.3134115E-2,-5.2026194E-2,-7.725065E-2,-6.739517E-2,4.3681126E-2,-6.060284E-4,2.378484E-2,-3.8157877E-2,-1.2160162E-3,-5.9875727E-2,2.8092286E-2],"categories":[],"categories_nodes":[],"categories_segments":[],"categories_sizes":[],"default_left":[0,0,0,0,0,0,0,0,0,0,0,0,0,0,0,0,0,0,0,0,0,0,0,0,0,0,0,0,0,0,0,0,0,0,0,0,0,0,0,0,0,0,0,0,0,0,0,0,0,0,0,0,0,0,0,0,0,0,0,0,0,0,0,0,0,0,0,0,0,0,0,0,0,0,0,0,0,0,0,0,0,0,0,0,0,0,0,0,0,0,0,0,0,0,0,0,0,0,0,0,0,0,0,0,0,0,0,0,0,0,0,0,0],"id":3,"left_children":[1,3,5,7,9,11,13,15,17,19,21,23,25,27,29,-1,31,33,35,37,39,-1,41,43,45,47,49,51,53,55,57,-1,59,61,63,65,67,69,71,73,75,77,79,81,83,85,87,89,91,93,95,97,99,101,103,105,107,109,111,-1,-1,-1,-1,-1,-1,-1,-1,-1,-1,-1,-1,-1,-1,-1,-1,-1,-1,-1,-1,-1,-1,-1,-1,-1,-1,-1,-1,-1,-1,-1,-1,-1,-1,-1,-1,-1,-1,-1,-1,-1,-1,-1,-1,-1,-1,-1,-1,-1,-1,-1,-1,-1,-1],"loss_changes":[5.3418174E3,1.2000923E3,4.887833E3,2.365752E2,1.9111426E2,6.8603076E2,2.7779927E3,1.2801361E1,1.6960046E2,2.2438062E2,1.0806787E2,1.0362242E3,2.0819385E2,6.590552E2,1.7091072E3,0E0,1.2093384E1,3.162445E1,3.077051E1,2.8085083E1,6.693094E1,0E0,3.841211E1,5.0044678E1,2.2969171E2,1.4753418E2,2.149741E1,7.216981E2,1.2853906E2,3.1263782E2,2.729886E2,0E0,8.682617E0,1.871135E1,1.578441E1,2.4525877E1,2.3668278E1,2.9032103E1,2.4339844E1,1.9229279E1,5.951422E1,1.0835456E1,3.356299E1,4.8326416E0,3.3697266E1,1.0496428E2,1.0418617E2,4.9239746E1,1.0946167E2,4.6646843E0,5.1775455E0,1.3168591E2,6.638653E1,7.092752E1,1.1638843E2,1.8832971E2,9.7593216E1,1.678961E2,5.9018616E1,0E0,0E0,0E0,0E0,0E0,0E0,0E0,0E0,0E0,0E0,0E0,0E0,0E0,0E0,0E0,0E0,0E0,0E0,0E0,0E0,0E0,0E0,0E0,0E0,0E0,0E0,0E0,0E0,0E0,0E0,0E0,0E0,0E0,0E0,0E0,0E0,0E0,0E0,0E0,0E0,0E0,0E0,0E0,0E0,0E0,0E0,0E0,0E0,0E0,0E0,0E0,0E0,0E0,0E0],"parents":[2147483647,0,0,1,1,2,2,3,3,4,4,5,5,6,6,7,7,8,8,9,9,10,10,11,11,12,12,13,13,14,14,16,16,17,17,18,18,19,19,20,20,22,22,23,23,24,24,25,25,26,26,27,27,28,28,29,29,30,30,32,32,33,33,34,34,35,35,36,36,37,37,38,38,39,39,40,40,41,41,42,42,43,43,44,44,45,45,46,46,47,47,48,48,49,49,50,50,51,51,52,52,53,53,54,54,55,55,56,56,57,57,58,58],"right_children":[2,4,6,8,10,12,14,16,18,20,22,24,26,28,30,-1,32,34,36,38,40,-1,42,44,46,48,50,52,54,56,58,-1,60,62,64,66,68,70,72,74,76,78,80,82,84,86,88,90,92,94,96,98,100,102,104,106,108,110,112,-1,-1,-1,-1,-1,-1,-1,-1,-1,-1,-1,-1,-1,-1,-1,-1,-1,-1,-1,-1,-1,-1,-1,-1,-1,-1,-1,-1,-1,-1,-1,-1,-1,-1,-1,-1,-1,-1,-1,-1,-1,-1,-1,-1,-1,-1,-1,-1,-1,-1,-1,-1,-1,-1],"split_conditions":[-7.134708E-1,-1.4202558E0,-2.3181304E-1,-1.697559E0,-8.06227E-1,2.208047E-1,6.8794245E-1,2.00001E0,-1.6477464E0,-1.6477464E0,2.00001E0,-1.1231451E0,1.1932277E1,4.8125258E-1,1.2141255E0,-5.673616E-2,2.00001E0,-2.1148841E0,2.00001E0,2.00001E0,2.00001E0,8.756573E-2,2.00001E0,-1.5391E0,-2.4633308E-1,-7.468049E-1,-1.4004483E0,2.208047E-1,2.00001E0,6.7932636E-1,1.8083469E0,-5.238536E-2,-1.7569811E0,2.00001E0,-4.446005E-1,-6.623382E-2,2.00001E0,2.00001E0,2.00001E0,2.00001E0,2.2068164E0,2.00001E0,2.00001E0,1.734119E-3,2.00001E0,-5.0911635E-1,2.00001E0,2.00001E0,6.8794245E-1,-1.5192926E0,-9.4487864E-1,-2.4633308E-1,2.2068164E0,7.25499E-1,9.7643703E-1,2.00001E0,1.1550802E0,1.1550802E0,2.2068164E0,8.6207286E-2,5.632295E-2,1.7116522E-2,-8.835425E-2,-7.88395E-2,-1.9872962E-2,-8.736601E-2,1.3435652E-2,-7.9978235E-2,2.5646536E-2,8.755601E-2,-7.555786E-2,-4.0861797E-2,-9.024688E-2,1.5622413E-3,-9.1815375E-2,-3.5294008E-2,4.324968E-2,8.494753E-2,-5.302986E-2,-6.258782E-2,-8.679843E-2,8.4800184E-2,1.2671907E-2,2.5584841E-2,6.476971E-2,-1.864103E-3,-4.2664688E-2,-4.19074E-2,2.7304858E-2,5.65044E-3,8.0222495E-2,4.0653136E-2,6.877473E-2,1.5940554E-3,4.3041732E-2,-2.4854854E-2,-6.274418E-2,-6.6747926E-2,-3.3579614E-2,8.725204E-3,8.111493E-2,9.076069E-2,-8.3134115E-2,-5.2026194E-2,-7.725065E-2,-6.739517E-2,4.3681126E-2,-6.060284E-4,2.378484E-2,-3.8157877E-2,-1.2160162E-3,-5.9875727E-2,2.8092286E-2],"split_indices":[155,153,153,153,153,155,155,92,155,155,23,153,156,153,153,0,81,155,25,70,104,0,15,153,155,153,153,155,23,153,153,0,153,93,158,156,81,8,0,148,159,25,13,156,29,153,65,137,155,153,153,155,159,159,153,28,155,155,159,0,0,0,0,0,0,0,0,0,0,0,0,0,0,0,0,0,0,0,0,0,0,0,0,0,0,0,0,0,0,0,0,0,0,0,0,0,0,0,0,0,0,0,0,0,0,0,0,0,0,0,0,0,0],"split_type":[0,0,0,0,0,0,0,0,0,0,0,0,0,0,0,0,0,0,0,0,0,0,0,0,0,0,0,0,0,0,0,0,0,0,0,0,0,0,0,0,0,0,0,0,0,0,0,0,0,0,0,0,0,0,0,0,0,0,0,0,0,0,0,0,0,0,0,0,0,0,0,0,0,0,0,0,0,0,0,0,0,0,0,0,0,0,0,0,0,0,0,0,0,0,0,0,0,0,0,0,0,0,0,0,0,0,0,0,0,0,0,0,0],"sum_hessian":[1.8959564E4,3.2042256E3,1.5755339E4,5.0060492E2,2.7036206E3,5.685557E3,1.0069782E4,1.26196945E2,3.7440796E2,1.070693E3,1.6329276E3,2.7410603E3,2.9444966E3,4.055584E3,6.014198E3,1.2454041E0,1.24951546E2,1.3408891E2,2.4031905E2,4.0726602E2,6.63427E2,8.486441E0,1.6244412E3,1.0624204E3,1.67864E3,2.8698296E3,7.466706E1,2.1729822E3,1.8826018E3,4.14363E3,1.8705684E3,1.2452104E0,1.2370634E2,5.7665276E1,7.642364E1,2.267526E1,2.1764378E2,8.934226E0,3.983318E2,6.925481E1,5.941722E2,4.9777026E0,1.6194635E3,3.787512E2,6.8366925E2,7.474807E2,9.3115924E2,1.4554705E3,1.414359E3,3.4180126E1,4.0486935E1,1.2506226E3,9.223596E2,2.7398771E1,1.8552031E3,2.4369194E3,1.7067103E3,1.3218162E3,5.487522E2,7.284256E1,5.0863773E1,4.2367787E0,5.3428497E1,1.3187249E1,6.323639E1,1.0982078E1,1.1693183E1,4.4884624E0,2.1315532E2,4.224815E0,4.709411E0,2.932246E1,3.690093E2,5.994541E0,6.3260265E1,5.6980963E2,2.4362595E1,3.7304187E0,1.2472838E0,1.7290578E2,1.4465577E3,3.7602963E2,2.7215798E0,6.2115086E1,6.2155414E2,5.2272595E2,2.2475476E2,5.7101147E1,8.7405804E2,2.2643377E1,1.4328271E3,6.314037E2,7.8295526E2,2.5946669E1,8.233456E0,2.4740675E1,1.574626E1,5.032044E2,7.4741815E2,8.904955E2,3.1864136E1,2.0172297E1,7.226475E0,9.584092E2,8.967939E2,3.792428E1,2.398995E3,6.8426263E2,1.02244775E3,4.8556705E2,8.3624915E2,5.295272E2,1.9224995E1],"tree_param":{"num_deleted":"0","num_feature":"160","num_nodes":"113","size_leaf_vector":"1"}},{"base_weights":[1.1419107E-3,8.004955E-1,-8.390353E-1,1.3285418E0,3.4751114E-1,-3.8004735E-1,-1.2492858E0,1.3677262E0,-3.415145E-1,1.8548495E-1,8.135653E-1,4.0320843E-1,-5.1232725E-1,-1.000022E0,-1.498317E0,1.5560386E0,1.0253912E0,2.1589705E-1,-6.8375736E-1,-6.5470594E-1,2.630649E-1,1.060966E0,2.5170863E-1,-1.5732355E-1,6.273453E-1,9.483133E-1,-5.675905E-1,-6.0937095E-1,-1.3235071E0,-1.5325855E0,-3.9239782E-1,6.9971323E-1,1.587257E0,-1.2893492E0,1.0602657E0,9.474654E-1,2.6378516E-2,-3.7886196E-1,-8.54747E-1,8.843537E-2,-7.8599566E-1,-1.4091834E0,3.0267838E-1,-9.211365E-2,1.1102618E0,-1.6085593E-1,1.1185954E0,1.4076416E0,-4.453432E-1,-3.1512916E-1,7.18864E-1,-9.0081826E-2,1.2459288E0,-3.420823E-1,-8.431126E-1,9.980679E-1,-6.7844623E-1,7.9657E-1,-1.3675082E0,-9.867241E-1,-1.5989878E0,8.257463E-2,-8.818336E-1,-1.0039493E-1,7.696312E-2,1.68504E-2,8.028869E-2,7.382559E-2,-1.0271733E-1,9.836222E-3,5.751387E-2,5.7396825E-2,6.4247595E-3,4.9633846E-2,-5.6351917E-3,-1.6419761E-3,-3.7526846E-2,-4.9640215E-3,-4.853056E-2,8.666054E-2,-4.568992E-2,2.3038348E-2,-9.375386E-2,5.311628E-2,1.1209453E-2,-7.96926E-2,5.7160456E-2,4.6625994E-2,-2.3916628E-2,-5.460118E-2,7.79266E-2,-6.5610185E-2,8.732753E-2,8.3932035E-2,-2.7894631E-2,2.2615174E-2,-7.635545E-2,7.912559E-2,3.049309E-2,-9.330129E-2,7.454949E-2,-8.643181E-3,-3.375739E-2,9.303203E-2,-4.3477762E-2,-7.86058E-2,7.1868405E-2,2.3361116E-3,-4.0216554E-2,8.7044895E-2,-8.292659E-2,-2.9313153E-2,-7.334729E-2,-2.422975E-2,-6.96361E-2,-7.362586E-2,-8.6631164E-2,8.791294E-2,-7.019677E-2],"categories":[],"categories_nodes":[],"categories_segments":[],"categories_sizes":[],"default_left":[0,0,0,0,0,0,0,0,0,0,0,0,0,0,0,0,0,0,0,0,0,0,0,0,0,0,0,0,0,0,0,0,0,0,0,0,0,0,0,0,0,0,0,0,0,0,0,0,0,0,0,0,0,0,0,0,0,0,0,0,0,0,0,0,0,0,0,0,0,0,0,0,0,0,0,0,0,0,0,0,0,0,0,0,0,0,0,0,0,0,0,0,0,0,0,0,0,0,0,0,0,0,0,0,0,0,0,0,0,0,0,0,0,0,0,0,0,0,0],"id":4,"left_children":[1,3,5,7,9,11,13,15,17,19,21,23,25,27,29,31,33,35,37,39,41,43,45,47,49,51,53,55,57,59,61,63,65,67,69,71,73,75,77,-1,79,81,83,-1,85,87,89,91,93,95,97,-1,99,101,103,105,107,109,111,113,115,-1,117,-1,-1,-1,-1,-1,-1,-1,-1,-1,-1,-1,-1,-1,-1,-1,-1,-1,-1,-1,-1,-1,-1,-1,-1,-1,-1,-1,-1,-1,-1,-1,-1,-1,-1,-1,-1,-1,-1,-1,-1,-1,-1,-1,-1,-1,-1,-1,-1,-1,-1,-1,-1,-1,-1,-1,-1],"loss_changes":[1.2716603E4,2.3204985E3,1.7378511E3,2.9363965E2,3.9433923E2,4.5178345E2,3.0106494E2,2.806045E2,1.9893215E1,2.529322E2,1.870235E2,7.928538E1,3.0155682E2,3.0740625E2,9.172803E1,7.433301E1,1.2700696E2,5.5395308E0,3.0320187E0,1.057742E2,2.3563649E2,1.3588257E2,1.4796753E2,8.2137924E1,3.907959E1,1.13816154E2,2.2300696E2,1.2355261E2,1.2546948E2,8.4061035E1,7.604822E1,2.328029E2,6.2476562E1,5.2866673E1,1.1899719E2,1.2035851E0,4.534217E0,3.1808715E0,3.4438553E0,0E0,1.02006454E2,7.2599915E1,2.0661847E2,0E0,8.380286E1,9.7935486E1,1.3140958E2,2.8423363E1,3.7628532E1,3.842025E1,3.7715378E1,0E0,9.704361E1,1.1136438E2,1.1721533E2,5.4197865E1,9.695264E1,6.720439E1,1.0064258E2,5.209555E1,3.3021484E1,0E0,8.629082E1,0E0,0E0,0E0,0E0,0E0,0E0,0E0,0E0,0E0,0E0,0E0,0E0,0E0,0E0,0E0,0E0,0E0,0E0,0E0,0E0,0E0,0E0,0E0,0E0,0E0,0E0,0E0,0E0,0E0,0E0,0E0,0E0,0E0,0E0,0E0,0E0,0E0,0E0,0E0,0E0,0E0,0E0,0E0,0E0,0E0,0E0,0E0,0E0,0E0,0E0,0E0,0E0,0E0,0E0,0E0,0E0],"parents":[2147483647,0,0,1,1,2,2,3,3,4,4,5,5,6,6,7,7,8,8,9,9,10,10,11,11,12,12,13,13,14,14,15,15,16,16,17,17,18,18,19,19,20,20,21,21,22,22,23,23,24,24,25,25,26,26,27,27,28,28,29,29,30,30,31,31,32,32,33,33,34,34,35,35,36,36,37,37,38,38,40,40,41,41,42,42,44,44,45,45,46,46,47,47,48,48,49,49,50,50,52,52,53,53,54,54,55,55,56,56,57,57,58,58,59,59,60,60,62,62],"right_children":[2,4,6,8,10,12,14,16,18,20,22,24,26,28,30,32,34,36,38,40,42,44,46,48,50,52,54,56,58,60,62,64,66,68,70,72,74,76,78,-1,80,82,84,-1,86,88,90,92,94,96,98,-1,100,102,104,106,108,110,112,114,116,-1,118,-1,-1,-1,-1,-1,-1,-1,-1,-1,-1,-1,-1,-1,-1,-1,-1,-1,-1,-1,-1,-1,-1,-1,-1,-1,-1,-1,-1,-1,-1,-1,-1,-1,-1,-1,-1,-1,-1,-1,-1,-1,-1,-1,-1,-1,-1,-1,-1,-1,-1,-1,-1,-1,-1,-1,-1],"split_conditions":[-1.3071093E-1,-2.7272934E-1,1.8810239E-2,1.6950955E0,-5.428756E-2,-6.6757536E-1,2.1938957E-1,-3.1104255E-1,-1.4004483E0,2.00001E0,2.00001E0,-7.7007465E-2,2.00001E0,8.510501E-2,2.2068164E0,2.00001E0,2.00001E0,-1.1005955E0,1.1932277E1,2.00001E0,2.00001E0,2.00001E0,7.216129E-1,2.00001E0,2.00001E0,2.00001E0,-6.439855E-2,2.00001E0,2.00001E0,-1.380641E0,2.00001E0,-1.126148E0,2.00001E0,2.00001E0,2.00001E0,2.00001E0,2.00001E0,-5.289237E-1,2.00001E0,8.843537E-2,2.00001E0,2.00001E0,-8.6564916E-1,-9.211365E-2,2.00001E0,-1.1005955E0,2.00001E0,2.00001E0,2.00001E0,-7.2704777E-3,2.00001E0,-9.0081826E-2,2.00001E0,2.00001E0,2.00001E0,2.00001E0,-1.1825672E0,-7.2704777E-3,2.00001E0,7.853674E-1,-4.8930895E-1,8.257463E-2,2.00001E0,-1.0039493E-1,7.696312E-2,1.68504E-2,8.028869E-2,7.382559E-2,-1.0271733E-1,9.836222E-3,5.751387E-2,5.7396825E-2,6.4247595E-3,4.9633846E-2,-5.6351917E-3,-1.6419761E-3,-3.7526846E-2,-4.9640215E-3,-4.853056E-2,8.666054E-2,-4.568992E-2,2.3038348E-2,-9.375386E-2,5.311628E-2,1.1209453E-2,-7.96926E-2,5.7160456E-2,4.6625994E-2,-2.3916628E-2,-5.460118E-2,7.79266E-2,-6.5610185E-2,8.732753E-2,8.3932035E-2,-2.7894631E-2,2.2615174E-2,-7.635545E-2,7.912559E-2,3.049309E-2,-9.330129E-2,7.454949E-2,-8.643181E-3,-3.375739E-2,9.303203E-2,-4.3477762E-2,-7.86058E-2,7.1868405E-2,2.3361116E-3,-4.0216554E-2,8.7044895E-2,-8.292659E-2,-2.9313153E-2,-7.334729E-2,-2.422975E-2,-6.96361E-2,-7.362586E-2,-8.6631164E-2,8.791294E-2,-7.019677E-2],"split_indices":[157,157,157,154,156,153,157,153,153,3,152,156,5,153,159,65,38,158,156,78,11,51,158,132,3,66,157,5,85,153,5,159,42,2,37,152,27,153,35,0,125,132,153,0,48,158,106,65,125,158,148,0,29,152,34,66,153,158,35,157,153,0,106,0,0,0,0,0,0,0,0,0,0,0,0,0,0,0,0,0,0,0,0,0,0,0,0,0,0,0,0,0,0,0,0,0,0,0,0,0,0,0,0,0,0,0,0,0,0,0,0,0,0,0,0,0,0,0,0],"split_type":[0,0,0,0,0,0,0,0,0,0,0,0,0,0,0,0,0,0,0,0,0,0,0,0,0,0,0,0,0,0,0,0,0,0,0,0,0,0,0,0,0,0,0,0,0,0,0,0,0,0,0,0,0,0,0,0,0,0,0,0,0,0,0,0,0,0,0,0,0,0,0,0,0,0,0,0,0,0,0,0,0,0,0,0,0,0,0,0,0,0,0,0,0,0,0,0,0,0,0,0,0,0,0,0,0,0,0,0,0,0,0,0,0,0,0,0,0,0,0],"sum_hessian":[1.8932824E4,9.7021455E3,9.230679E3,4.479009E3,5.223137E3,4.357471E3,4.8732075E3,4.3765044E3,1.0250462E2,3.876759E3,1.3463779E3,6.292872E2,3.728184E3,2.4379724E3,2.435235E3,2.821114E3,1.5553901E3,3.913483E1,6.3369793E1,3.2707687E2,3.5496821E3,9.3415564E2,4.1222226E2,1.79838E2,4.494492E2,1.3532414E2,3.5928599E3,1.1056443E3,1.332328E3,2.3616694E3,7.3565544E1,1.00053535E2,2.7210605E3,2.2552132E1,1.532838E3,7.229316E0,3.1905512E1,2.3924746E1,3.9445045E1,1.6167995E1,3.1090887E2,8.13417E1,3.4683406E3,1.4989491E1,9.1916614E2,2.7985126E2,1.3237102E2,2.7348984E1,1.5248901E2,3.956447E1,4.098847E2,1.2721807E1,1.2260234E2,1.9769862E3,1.6158737E3,4.5000328E1,1.0606439E3,2.6741747E1,1.3055863E3,2.5785205E2,2.1038174E3,1.3754073E1,5.9811466E1,2.3351496E1,7.6702034E1,3.9992233E1,2.6810684E3,4.6846423E0,1.7867489E1,1.4499478E2,1.3878433E3,5.484993E0,1.7443231E0,3.2422304E0,2.8663282E1,1.2953569E1,1.0971176E1,5.492073E0,3.3952972E1,1.4404786E1,2.965041E2,1.6226131E1,6.511556E1,3.2362726E2,3.1447131E3,1.0494172E1,9.08672E2,6.2537502E1,2.1731375E2,2.1724792E1,1.1064622E2,2.7120597E0,2.4636925E1,6.9734974E0,1.4551552E2,2.4608824E1,1.4955644E1,4.44197E1,3.65465E2,8.467067E0,1.1413528E2,1.3119502E3,6.65036E2,1.4978331E1,1.6008954E3,6.1923685E0,3.880796E1,1.5697978E2,9.036642E2,1.952325E1,7.218497E0,1.481922E2,1.1573942E3,1.1625904E2,1.4159302E2,1.0870599E3,1.01675757E3,9.484401E0,5.032707E1],"tree_param":{"num_deleted":"0","num_feature":"160","num_nodes":"119","size_leaf_vector":"1"}},{"base_weights":[3.0428654E-4,6.502803E-1,-9.538493E-1,1.2462239E0,2.0372546E-1,-6.1031926E-1,-1.2849787E0,1.4324883E0,9.3193614E-1,6.4840764E-1,4.6787336E-2,-1.5464066E-1,-8.345541E-1,-1.5425966E0,-1.1187332E0,1.4856479E0,-2.2636636E-1,-1.6317215E0,9.780659E-1,4.5752138E-1,1.0995871E0,-7.4198925E-1,1.5615815E-1,1.5263717E0,-2.1592471E-1,-1.1225064E0,-4.7386336E-1,1.24827E0,-1.5541995E0,-7.188292E-1,-1.4047819E0,6.056637E-1,1.5193124E0,7.2193813E-1,-3.5679433E-1,6.880618E-2,-9.804004E-2,-1.4774927E-1,1.0391481E0,5.8054533E-2,6.9285965E-1,-1.2294765E0,1.1816893E0,4.981063E-1,-9.383645E-1,-1.0969607E0,2.1861133E-1,-7.616944E-2,1.8933253E0,-5.447374E-1,1.0244405E-1,5.5483156E-1,-1.1645312E0,-8.6366385E-2,-8.7721986E-1,7.0241387E-3,7.3105E-2,7.643696E-2,-1.5633358E0,1.394777E0,-8.032749E-1,-4.9414665E-2,-1.4667175E0,-9.667382E-2,5.073277E-2,-2.2166632E-2,7.661741E-2,-1.2309029E-2,4.579879E-2,-1.3198549E-2,-5.1693875E-2,2.6350899E-2,-6.590764E-2,2.5586186E-2,5.794855E-2,5.3768147E-2,-1.3648048E-2,-4.8415672E-2,3.927213E-2,6.851142E-2,-9.850846E-2,-8.679019E-2,6.1823368E-2,7.803394E-2,-5.05553E-2,-7.454213E-2,-2.9352887E-2,9.2133574E-2,-6.591312E-2,-2.6070083E-2,1.4887489E-2,3.0616233E-2,9.5952384E-2,9.257647E-2,-3.1995956E-2,6.468885E-2,5.3302525E-4,-8.1107445E-2,7.409682E-2,-7.725507E-3,-6.188501E-2,-8.888881E-2,5.638792E-4,-1.8366702E-2,-5.5274285E-2,-5.7165213E-2,-8.1381015E-2,-5.1692683E-2,7.598232E-2,-5.8336224E-2,-2.5220854E-2,8.212694E-2,-3.9317086E-2,2.6130805E-2,-7.522006E-2],"categories":[],"categories_nodes":[],"categories_segments":[],"categories_sizes":[],"default_left":[0,0,0,0,0,0,0,0,0,0,0,0,0,0,0,0,0,0,0,0,0,0,0,0,0,0,0,0,0,0,0,0,0,0,0,0,0,0,0,0,0,0,0,0,0,0,0,0,0,0,0,0,0,0,0,0,0,0,0,0,0,0,0,0,0,0,0,0,0,0,0,0,0,0,0,0,0,0,0,0,0,0,0,0,0,0,0,0,0,0,0,0,0,0,0,0,0,0,0,0,0,0,0,0,0,0,0,0,0,0,0,0,0,0,0],"id":5,"left_children":[1,3,5,7,9,11,13,15,17,19,21,23,25,27,29,31,33,35,37,39,41,43,45,47,49,51,53,55,57,59,61,63,65,67,69,-1,-1,71,73,75,77,79,81,83,85,87,89,-1,91,93,95,97,99,101,103,-1,-1,-1,105,107,109,111,113,-1,-1,-1,-1,-1,-1,-1,-1,-1,-1,-1,-1,-1,-1,-1,-1,-1,-1,-1,-1,-1,-1,-1,-1,-1,-1,-1,-1,-1,-1,-1,-1,-1,-1,-1,-1,-1,-1,-1,-1,-1,-1,-1,-1,-1,-1,-1,-1,-1,-1,-1,-1],"loss_changes":[1.1659392E4,2.9756514E3,8.6573975E2,2.7906592E2,4.461684E2,3.820918E2,1.6435645E2,2.6538135E2,2.1272046E2,1.4313177E2,4.079014E2,1.27548645E2,2.5982764E2,5.110669E1,2.6902075E2,8.535742E1,1.1908018E1,3.43034E1,1.2079321E2,1.1029471E2,9.6129395E1,1.4068527E2,3.2518945E2,5.1634148E1,1.2487488E2,9.8854126E1,1.7413109E2,1.4150419E0,4.49917E1,1.7718295E2,1.1536426E2,1.15129486E2,7.242871E1,2.427043E0,4.973384E0,0E0,0E0,7.268773E1,1.0457739E2,1.4717972E2,1.14332825E2,3.6106873E1,7.866016E1,1.288549E2,9.566849E1,1.3076636E2,2.3182278E2,0E0,1.20788574E-1,1.3500208E2,6.631855E1,7.25003E1,1.00278076E2,9.408799E1,6.314264E1,0E0,0E0,0E0,3.8871338E1,1.3174622E1,1.0250964E2,7.750886E1,9.93667E1,0E0,0E0,0E0,0E0,0E0,0E0,0E0,0E0,0E0,0E0,0E0,0E0,0E0,0E0,0E0,0E0,0E0,0E0,0E0,0E0,0E0,0E0,0E0,0E0,0E0,0E0,0E0,0E0,0E0,0E0,0E0,0E0,0E0,0E0,0E0,0E0,0E0,0E0,0E0,0E0,0E0,0E0,0E0,0E0,0E0,0E0,0E0,0E0,0E0,0E0,0E0,0E0],"parents":[2147483647,0,0,1,1,2,2,3,3,4,4,5,5,6,6,7,7,8,8,9,9,10,10,11,11,12,12,13,13,14,14,15,15,16,16,17,17,18,18,19,19,20,20,21,21,22,22,23,23,24,24,25,25,26,26,27,27,28,28,29,29,30,30,31,31,32,32,33,33,34,34,37,37,38,38,39,39,40,40,41,41,42,42,43,43,44,44,45,45,46,46,48,48,49,49,50,50,51,51,52,52,53,53,54,54,58,58,59,59,60,60,61,61,62,62],"right_children":[2,4,6,8,10,12,14,16,18,20,22,24,26,28,30,32,34,36,38,40,42,44,46,48,50,52,54,56,58,60,62,64,66,68,70,-1,-1,72,74,76,78,80,82,84,86,88,90,-1,92,94,96,98,100,102,104,-1,-1,-1,106,108,110,112,114,-1,-1,-1,-1,-1,-1,-1,-1,-1,-1,-1,-1,-1,-1,-1,-1,-1,-1,-1,-1,-1,-1,-1,-1,-1,-1,-1,-1,-1,-1,-1,-1,-1,-1,-1,-1,-1,-1,-1,-1,-1,-1,-1,-1,-1,-1,-1,-1,-1,-1,-1,-1],"split_conditions":[-8.939167E-2,-2.5948372E-1,7.722911E-2,-3.1104255E-1,-2.3181304E-1,-3.373926E-2,-1.1806086E0,1.6950955E0,-2.4633308E-1,-5.5532485E-2,2.208047E-1,2.00001E0,6.8794245E-1,2.00001E0,-2.714278E-1,2.00001E0,-1.7569811E0,2.00001E0,2.00001E0,-2.4633308E-1,2.00001E0,2.00001E0,2.00001E0,2.00001E0,-6.929423E-2,2.00001E0,1.6102731E0,-4.8499744E-2,2.00001E0,2.00001E0,2.00001E0,2.00001E0,2.00001E0,2.00001E0,-6.081532E-1,6.880618E-2,-9.804004E-2,2.00001E0,6.8794245E-1,-1.3014115E0,2.00001E0,2.00001E0,2.00001E0,-1.4202356E-1,2.00001E0,2.00001E0,2.00001E0,-7.616944E-2,-1.5589074E0,2.00001E0,2.00001E0,2.00001E0,2.00001E0,2.00001E0,-4.8284568E-2,7.0241387E-3,7.3105E-2,7.643696E-2,-1.380641E0,2.00001E0,-7.134708E-1,-5.7918593E-2,2.00001E0,-9.667382E-2,5.073277E-2,-2.2166632E-2,7.661741E-2,-1.2309029E-2,4.579879E-2,-1.3198549E-2,-5.1693875E-2,2.6350899E-2,-6.590764E-2,2.5586186E-2,5.794855E-2,5.3768147E-2,-1.3648048E-2,-4.8415672E-2,3.927213E-2,6.851142E-2,-9.850846E-2,-8.679019E-2,6.1823368E-2,7.803394E-2,-5.05553E-2,-7.454213E-2,-2.9352887E-2,9.2133574E-2,-6.591312E-2,-2.6070083E-2,1.4887489E-2,3.0616233E-2,9.5952384E-2,9.257647E-2,-3.1995956E-2,6.468885E-2,5.3302525E-4,-8.1107445E-2,7.409682E-2,-7.725507E-3,-6.188501E-2,-8.888881E-2,5.638792E-4,-1.8366702E-2,-5.5274285E-2,-5.7165213E-2,-8.1381015E-2,-5.1692683E-2,7.598232E-2,-5.8336224E-2,-2.5220854E-2,8.212694E-2,-3.9317086E-2,2.6130805E-2,-7.522006E-2],"split_indices":[157,157,157,153,153,153,155,154,155,156,155,68,155,85,153,65,153,94,65,155,109,13,1,6,156,137,153,156,23,137,9,25,137,37,153,0,0,151,155,153,1,19,108,157,151,25,3,0,153,94,5,66,61,3,157,0,0,0,153,21,155,156,85,0,0,0,0,0,0,0,0,0,0,0,0,0,0,0,0,0,0,0,0,0,0,0,0,0,0,0,0,0,0,0,0,0,0,0,0,0,0,0,0,0,0,0,0,0,0,0,0,0,0,0,0],"split_type":[0,0,0,0,0,0,0,0,0,0,0,0,0,0,0,0,0,0,0,0,0,0,0,0,0,0,0,0,0,0,0,0,0,0,0,0,0,0,0,0,0,0,0,0,0,0,0,0,0,0,0,0,0,0,0,0,0,0,0,0,0,0,0,0,0,0,0,0,0,0,0,0,0,0,0,0,0,0,0,0,0,0,0,0,0,0,0,0,0,0,0,0,0,0,0,0,0,0,0,0,0,0,0,0,0,0,0,0,0,0,0,0,0,0,0],"sum_hessian":[1.8798105E4,1.1181506E4,7.6165996E3,4.7888374E3,6.392668E3,3.7396968E3,3.876903E3,3.0045913E3,1.7842458E3,1.6667687E3,4.7258994E3,1.2339058E3,2.505791E3,1.5173325E3,2.3595706E3,2.9113972E3,9.319409E1,3.0930174E1,1.7533157E3,1.1726532E3,4.9411545E2,5.747864E2,4.1511133E3,4.2560867E1,1.1913448E3,1.39222E3,1.1135712E3,5.8408275E0,1.5114917E3,9.8542816E2,1.3741423E3,1.079736E2,2.8034236E3,1.0719623E1,8.247447E1,2.7364814E0,2.8193693E1,9.015929E1,1.6631564E3,4.3519434E2,7.374589E2,1.6349188E1,4.7776627E2,7.8367134E1,4.9641925E2,1.9627637E2,3.9548367E3,4.2325544E0,3.8328312E1,5.857099E2,6.056349E2,3.373059E1,1.3584894E3,5.685704E2,5.4500073E2,1.2131016E0,4.6277256E0,3.9746199E0,1.5075171E3,3.7262474E1,9.481657E2,6.0128033E1,1.3140144E3,1.4461978E1,9.351162E1,1.8279568E1,2.785144E3,1.7449176E0,8.974705E0,7.375328E1,8.7211895E0,5.7537296E1,3.2621994E1,3.0887045E2,1.354286E3,1.062888E2,3.2890555E2,3.843201E1,6.9902686E2,3.4367733E0,1.2912414E1,8.239522E0,4.6952673E2,4.5968533E1,3.2398598E1,1.9170041E2,3.0471884E2,1.3228661E1,1.8304771E2,3.81538E2,3.5732988E3,1.2427555E0,3.7085556E1,2.1671137E1,5.6403876E2,4.238534E1,5.632496E2,9.850486E0,2.3880102E1,9.19755E1,1.2665139E3,3.0092632E1,5.384777E2,1.6934279E2,3.7565796E2,2.0259007E2,1.304927E3,1.4662042E0,3.579627E1,4.2653745E2,5.2162823E2,1.7870111E1,4.2257923E1,2.41892E1,1.2898252E3],"tree_param":{"num_deleted":"0","num_feature":"160","num_nodes":"115","size_leaf_vector":"1"}},{"base_weights":[3.0683563E-4,7.4546945E-1,-7.6271594E-1,1.215268E0,3.1850535E-1,-3.843179E-1,-1.2004308E0,1.3878458E0,9.0849763E-1,-8.916824E-1,3.7755814E-1,8.043452E-2,-5.592308E-1,-1.0097209E0,-1.4590317E0,1.4371316E0,-1.1765266E-1,2.7292585E-1,1.0584431E0,8.5126504E-2,-1.0865042E0,2.0909905E-1,8.5630894E-1,-5.240422E-1,2.8031245E-1,-9.0798444E-1,-2.3030737E-1,-5.3859603E-1,-1.2593926E0,-9.005642E-1,-1.5419391E0,-5.1093704E-1,1.4510636E0,3.3986846E-1,-5.1768345E-1,-1.5491616E0,5.1281244E-1,-2.9464132E-1,1.1292887E0,-2.6173937E-1,-1.5010493E0,-7.061313E-1,3.0981085E-1,3.6542842E-1,1.0634617E0,3.9494282E-1,-7.2209215E-1,1.039602E0,1.2590584E-1,1.0977684E0,-9.395312E-1,1.8130963E-1,-5.2463526E-1,-8.6555046E-1,-1.2722187E-1,-4.9668464E-1,-1.3513196E0,-1.4116185E0,-4.8074096E-1,-6.250623E-1,-1.5616977E0,-8.8049725E-2,7.6588675E-2,2.9531334E-2,7.42289E-2,-3.1125996E-2,2.1630049E-2,-2.0418493E-2,-6.828635E-2,7.290686E-2,-1.0054018E-1,-7.484367E-2,3.451267E-2,-3.2610897E-2,7.808886E-2,-1.3679157E-2,5.9324652E-2,-9.0671234E-2,3.6410976E-2,4.5441277E-2,-9.024462E-2,7.625703E-2,-4.5294996E-2,-2.311329E-2,1.9432357E-2,-8.0053136E-4,5.333361E-2,-8.820803E-2,5.5428643E-2,-4.7741666E-2,3.0518616E-2,7.237982E-2,-4.0522914E-2,-4.31777E-2,5.487972E-2,-4.538427E-2,1.2370708E-2,-7.467442E-2,9.5354766E-2,-2.8541335E-3,-5.0911367E-2,-6.06662E-2,1.5399836E-2,-6.57895E-2,-2.0693664E-2,-1.5313931E-2,-5.6328952E-2,-8.662682E-2,2.1051446E-3,-6.337077E-2,5.94469E-3,-6.902687E-2,1.5418406E-2,5.9889643E-3,-7.437601E-2,-5.873174E-3,-6.101789E-2,1.3556445E-2,-7.881584E-2,-1.677451E-2,-7.86054E-2],"categories":[],"categories_nodes":[],"categories_segments":[],"categories_sizes":[],"default_left":[0,0,0,0,0,0,0,0,0,0,0,0,0,0,0,0,0,0,0,0,0,0,0,0,0,0,0,0,0,0,0,0,0,0,0,0,0,0,0,0,0,0,0,0,0,0,0,0,0,0,0,0,0,0,0,0,0,0,0,0,0,0,0,0,0,0,0,0,0,0,0,0,0,0,0,0,0,0,0,0,0,0,0,0,0,0,0,0,0,0,0,0,0,0,0,0,0,0,0,0,0,0,0,0,0,0,0,0,0,0,0,0,0,0,0,0,0,0,0,0,0],"id":6,"left_children":[1,3,5,7,9,11,13,15,17,19,21,23,25,27,29,31,33,35,37,-1,39,41,43,45,47,49,51,53,55,57,59,61,63,65,67,69,71,73,75,77,79,81,83,85,87,89,91,93,95,97,99,101,103,105,107,109,111,113,115,117,119,-1,-1,-1,-1,-1,-1,-1,-1,-1,-1,-1,-1,-1,-1,-1,-1,-1,-1,-1,-1,-1,-1,-1,-1,-1,-1,-1,-1,-1,-1,-1,-1,-1,-1,-1,-1,-1,-1,-1,-1,-1,-1,-1,-1,-1,-1,-1,-1,-1,-1,-1,-1,-1,-1,-1,-1,-1,-1,-1,-1],"loss_changes":[1.0624304E4,1.8958721E3,1.5286831E3,2.3701074E2,3.5436722E2,4.026895E2,2.0961377E2,2.137456E2,1.5440796E2,1.18489746E2,3.8082092E2,1.6389337E2,4.1262524E2,2.8946973E2,8.26228E1,7.638867E1,1.7044785E1,1.3682002E2,1.2620056E2,0E0,7.32094E1,3.224447E2,1.2461499E2,6.164402E1,1.1935336E2,1.115365E2,2.2463676E2,1.15044785E2,1.12318115E2,5.01597E1,2.7620361E1,5.512488E1,7.893506E1,4.160215E0,4.0375366E0,5.3540535E1,9.936599E1,4.4910767E1,1.0047046E2,1.1379299E2,1.0638754E2,1.5598636E2,1.919112E2,9.800551E1,1.12160095E2,1.8151539E1,5.4417374E1,1.994107E1,1.06732254E2,6.0528664E1,1.193822E2,1.3703416E2,9.417731E1,6.926947E1,1.0344833E2,8.3141266E1,7.013867E1,1.2539551E1,3.5216534E1,3.023649E1,1.9188477E1,0E0,0E0,0E0,0E0,0E0,0E0,0E0,0E0,0E0,0E0,0E0,0E0,0E0,0E0,0E0,0E0,0E0,0E0,0E0,0E0,0E0,0E0,0E0,0E0,0E0,0E0,0E0,0E0,0E0,0E0,0E0,0E0,0E0,0E0,0E0,0E0,0E0,0E0,0E0,0E0,0E0,0E0,0E0,0E0,0E0,0E0,0E0,0E0,0E0,0E0,0E0,0E0,0E0,0E0,0E0,0E0,0E0,0E0,0E0,0E0],"parents":[2147483647,0,0,1,1,2,2,3,3,4,4,5,5,6,6,7,7,8,8,9,9,10,10,11,11,12,12,13,13,14,14,15,15,16,16,17,17,18,18,20,20,21,21,22,22,23,23,24,24,25,25,26,26,27,27,28,28,29,29,30,30,31,31,32,32,33,33,34,34,35,35,36,36,37,37,38,38,39,39,40,40,41,41,42,42,43,43,44,44,45,45,46,46,47,47,48,48,49,49,50,50,51,51,52,52,53,53,54,54,55,55,56,56,57,57,58,58,59,59,60,60],"right_children":[2,4,6,8,10,12,14,16,18,20,22,24,26,28,30,32,34,36,38,-1,40,42,44,46,48,50,52,54,56,58,60,62,64,66,68,70,72,74,76,78,80,82,84,86,88,90,92,94,96,98,100,102,104,106,108,110,112,114,116,118,120,-1,-1,-1,-1,-1,-1,-1,-1,-1,-1,-1,-1,-1,-1,-1,-1,-1,-1,-1,-1,-1,-1,-1,-1,-1,-1,-1,-1,-1,-1,-1,-1,-1,-1,-1,-1,-1,-1,-1,-1,-1,-1,-1,-1,-1,-1,-1,-1,-1,-1,-1,-1,-1,-1,-1,-1,-1,-1,-1,-1],"split_conditions":[-1.3269114E-1,-2.671836E-1,4.800329E-2,-3.1104255E-1,2.00001E0,-1.7239091E-1,3.2077762E-1,1.6950955E0,6.8794245E-1,2.00001E0,-5.466481E-2,-7.134708E-1,6.8794245E-1,-3.7046468E-1,-1.380641E0,2.00001E0,-1.3410262E0,2.00001E0,2.00001E0,8.5126504E-2,2.00001E0,2.00001E0,2.00001E0,-1.4202558E0,-1.0835303E0,2.00001E0,1.2735476E0,-7.134708E-1,2.00001E0,-1.6477464E0,2.00001E0,2.00001E0,2.00001E0,2.00001E0,-5.0911635E-1,2.00001E0,-2.4633308E-1,7.216129E-1,2.00001E0,2.00001E0,2.00001E0,2.00001E0,2.00001E0,7.216129E-1,2.00001E0,2.00001E0,2.00001E0,2.00001E0,2.00001E0,-1.1380377E-1,2.00001E0,2.00001E0,2.00001E0,-1.1825672E0,2.00001E0,-7.2704777E-3,1.4460032E-2,-1.7371738E0,1.2331607E0,-6.6757536E-1,2.00001E0,-8.8049725E-2,7.6588675E-2,2.9531334E-2,7.42289E-2,-3.1125996E-2,2.1630049E-2,-2.0418493E-2,-6.828635E-2,7.290686E-2,-1.0054018E-1,-7.484367E-2,3.451267E-2,-3.2610897E-2,7.808886E-2,-1.3679157E-2,5.9324652E-2,-9.0671234E-2,3.6410976E-2,4.5441277E-2,-9.024462E-2,7.625703E-2,-4.5294996E-2,-2.311329E-2,1.9432357E-2,-8.0053136E-4,5.333361E-2,-8.820803E-2,5.5428643E-2,-4.7741666E-2,3.0518616E-2,7.237982E-2,-4.0522914E-2,-4.31777E-2,5.487972E-2,-4.538427E-2,1.2370708E-2,-7.467442E-2,9.5354766E-2,-2.8541335E-3,-5.0911367E-2,-6.06662E-2,1.5399836E-2,-6.57895E-2,-2.0693664E-2,-1.5313931E-2,-5.6328952E-2,-8.662682E-2,2.1051446E-3,-6.337077E-2,5.94469E-3,-6.902687E-2,1.5418406E-2,5.9889643E-3,-7.437601E-2,-5.873174E-3,-6.101789E-2,1.3556445E-2,-7.881584E-2,-1.677451E-2,-7.86054E-2],"split_indices":[157,157,157,153,1,153,157,154,155,56,156,155,155,153,153,137,153,25,65,0,19,104,151,153,153,23,153,155,35,155,137,9,65,126,153,103,155,158,79,65,72,148,3,158,51,8,23,44,140,156,138,3,29,153,29,158,156,153,157,153,63,0,0,0,0,0,0,0,0,0,0,0,0,0,0,0,0,0,0,0,0,0,0,0,0,0,0,0,0,0,0,0,0,0,0,0,0,0,0,0,0,0,0,0,0,0,0,0,0,0,0,0,0,0,0,0,0,0,0,0,0],"split_type":[0,0,0,0,0,0,0,0,0,0,0,0,0,0,0,0,0,0,0,0,0,0,0,0,0,0,0,0,0,0,0,0,0,0,0,0,0,0,0,0,0,0,0,0,0,0,0,0,0,0,0,0,0,0,0,0,0,0,0,0,0,0,0,0,0,0,0,0,0,0,0,0,0,0,0,0,0,0,0,0,0,0,0,0,0,0,0,0,0,0,0,0,0,0,0,0,0,0,0,0,0,0,0,0,0,0,0,0,0,0,0,0,0,0,0,0,0,0,0,0,0],"sum_hessian":[1.8683809E4,9.452545E3,9.231265E3,4.49964E3,4.9529043E3,4.9521133E3,4.2791514E3,2.8773975E3,1.6222426E3,2.2978323E2,4.723121E3,1.3542755E3,3.597838E3,2.46569E3,1.8134614E3,2.7862295E3,9.1168106E1,3.102042E2,1.3120383E3,1.5510415E1,2.1427283E2,3.494826E3,1.2282953E3,3.3612738E2,1.0181482E3,1.7454247E3,1.8524132E3,8.5516656E2,1.6105234E3,2.3595053E2,1.577511E3,1.9531555E1,2.766698E3,4.259825E1,4.856985E1,3.5453674E1,2.7475052E2,6.5121376E1,1.246917E3,7.2219246E1,1.4205357E2,3.458511E2,3.1489749E3,3.6533685E2,8.6295844E2,5.941901E1,2.7670837E2,1.7108926E2,8.470589E2,2.6503893E1,1.7189208E3,7.7248224E2,1.079931E3,4.758576E2,3.7930896E2,1.739213E2,1.4366022E3,1.053476E2,1.3060292E2,3.3966454E1,1.5435444E3,1.2202205E1,7.3293495E0,1.0442154E2,2.6622764E3,3.241766E0,3.9356483E1,4.4336395E1,4.2334585E0,4.4308677E0,3.1022806E1,2.1687155E1,2.5306335E2,5.5147694E1,9.9736805E0,4.8704826E1,1.1982122E3,2.7805082E1,4.441417E1,1.5682181E1,1.2637139E2,2.7874826E1,3.179763E2,2.9129892E2,2.857676E3,2.3725824E2,1.280786E2,1.2952847E1,8.500056E2,7.7058253E0,5.1713184E1,1.0226679E1,2.664817E2,4.648457E0,1.6644081E2,8.842402E1,7.586349E2,6.1066427E0,2.039725E1,1.4088226E2,1.5780386E3,6.3613743E1,7.0886847E2,1.3128738E2,9.486436E2,1.5211472E2,3.237429E2,3.5310383E1,3.439986E2,7.6758026E1,9.716326E1,1.4119144E3,2.4687756E1,4.9475393E0,1.0040006E2,8.836132E1,4.2241596E1,1.7857557E1,1.6108896E1,1.3273759E1,1.5302708E3],"tree_param":{"num_deleted":"0","num_feature":"160","num_nodes":"121","size_leaf_vector":"1"}},{"base_weights":[-5.8026216E-4,-1.0191888E0,2.0380335E-1,4.428686E-1,-1.2122327E0,7.80736E-1,-1.8567535E-1,-1.636963E-1,1.0285416E0,-8.8287574E-1,-1.4187475E0,1.1625879E0,5.069539E-1,-7.70885E-1,1.8137445E-1,9.7373986E-1,-9.246861E-1,1.4746552E0,5.677938E-1,-1.4666959E0,-5.3425294E-1,8.342873E-2,-1.4353175E0,1.1999748E0,-9.664506E-2,-8.750979E-2,9.3564653E-1,-4.963591E-1,-1.1988373E0,4.9862307E-1,-4.813307E-1,1.4471371E0,5.0516623E-1,1.1632669E0,-1.0003754E0,-2.784649E-2,1.519475E0,-4.543131E-1,8.428113E-1,4.714673E-1,-1.5103037E0,-1.2590113E0,-3.3901978E-1,-1.5962644E0,-1.2345552E0,8.203693E-1,1.3480064E0,3.174809E-1,-5.051291E-1,-4.6244955E-1,1.9162741E-1,7.4037653E-1,1.1751143E0,-8.84849E-1,5.867973E-4,8.983206E-2,-1.2157991E0,-1.0967214E0,5.329573E-1,-2.9702395E-1,-1.0289674E0,3.260686E-2,7.549876E-2,-4.0056403E-3,6.1280638E-2,7.0043266E-2,1.6308062E-2,-6.608733E-2,-3.018418E-2,2.2995785E-2,7.704292E-2,2.8403688E-2,-4.357387E-2,1.4935801E-2,6.2471803E-2,9.260656E-2,-6.374609E-2,-3.6008485E-2,-7.8427695E-2,6.0638305E-2,-6.575485E-2,1.3638021E-2,-3.33134E-2,-6.276421E-2,-8.120226E-2,5.3122967E-2,-6.279363E-2,5.9243705E-2,1.1861659E-2,-2.947338E-2,6.7948096E-2,-2.2321347E-2,2.0034738E-2,3.135066E-2,-2.8783116E-2,6.458553E-2,-2.6645793E-2,-4.182561E-2,1.3323314E-2,-2.3211036E-2,3.9609715E-2,6.10374E-2,-2.4827689E-2,5.953425E-2,-4.6051454E-2,4.9456563E-2,-5.2289586E-3,2.6193816E-2,-6.1995704E-2,7.721804E-2,-6.878834E-2,4.113361E-2,1.7775713E-2,-3.554849E-2,-2.9858027E-3,2.2739688E-2,-5.4246243E-2],"categories":[],"categories_nodes":[],"categories_segments":[],"categories_sizes":[],"default_left":[0,0,0,0,0,0,0,0,0,0,0,0,0,0,0,0,0,0,0,0,0,0,0,0,0,0,0,0,0,0,0,0,0,0,0,0,0,0,0,0,0,0,0,0,0,0,0,0,0,0,0,0,0,0,0,0,0,0,0,0,0,0,0,0,0,0,0,0,0,0,0,0,0,0,0,0,0,0,0,0,0,0,0,0,0,0,0,0,0,0,0,0,0,0,0,0,0,0,0,0,0,0,0,0,0,0,0,0,0,0,0,0,0,0,0,0,0],"id":7,"left_children":[1,3,5,7,9,11,13,15,17,19,21,23,25,27,29,31,33,35,37,39,41,-1,43,45,47,49,51,53,55,57,59,61,63,65,67,-1,69,71,73,75,77,79,81,83,85,87,89,91,93,95,97,99,101,103,105,-1,107,109,111,113,115,-1,-1,-1,-1,-1,-1,-1,-1,-1,-1,-1,-1,-1,-1,-1,-1,-1,-1,-1,-1,-1,-1,-1,-1,-1,-1,-1,-1,-1,-1,-1,-1,-1,-1,-1,-1,-1,-1,-1,-1,-1,-1,-1,-1,-1,-1,-1,-1,-1,-1,-1,-1,-1,-1,-1,-1],"loss_changes":[3.8643115E3,8.760481E2,3.4739976E3,1.2895877E2,1.8514575E2,6.507954E2,1.9827625E3,1.5579913E2,3.7102722E1,2.1471088E2,8.8476074E1,1.2257129E2,9.253222E2,4.174043E2,1.1929692E3,1.5289215E1,1.8189339E1,9.328384E0,2.636406E1,3.412079E1,9.3596176E1,0E0,5.2127686E1,1.4084717E2,1.3004121E1,1.5939291E2,9.777319E1,4.1878418E2,7.2793945E1,2.1075635E2,1.8512015E2,7.83226E-1,1.6050478E1,3.8463783E-1,1.2524506E1,0E0,1.3624725E0,9.130199E0,1.58176E1,2.5171158E1,1.667389E1,2.1092606E1,1.05257675E2,6.7316895E0,3.8029053E1,1.5090561E2,3.9344727E1,2.6145523E0,3.4440012E0,8.101944E1,6.741402E1,7.3067566E1,7.275781E1,9.251904E1,9.9152596E1,0E0,5.8647827E1,6.19422E1,1.9283875E2,1.3511838E2,3.8867676E1,0E0,0E0,0E0,0E0,0E0,0E0,0E0,0E0,0E0,0E0,0E0,0E0,0E0,0E0,0E0,0E0,0E0,0E0,0E0,0E0,0E0,0E0,0E0,0E0,0E0,0E0,0E0,0E0,0E0,0E0,0E0,0E0,0E0,0E0,0E0,0E0,0E0,0E0,0E0,0E0,0E0,0E0,0E0,0E0,0E0,0E0,0E0,0E0,0E0,0E0,0E0,0E0,0E0,0E0,0E0,0E0],"parents":[2147483647,0,0,1,1,2,2,3,3,4,4,5,5,6,6,7,7,8,8,9,9,10,10,11,11,12,12,13,13,14,14,15,15,16,16,17,17,18,18,19,19,20,20,22,22,23,23,24,24,25,25,26,26,27,27,28,28,29,29,30,30,31,31,32,32,33,33,34,34,36,36,37,37,38,38,39,39,40,40,41,41,42,42,43,43,44,44,45,45,46,46,47,47,48,48,49,49,50,50,51,51,52,52,53,53,54,54,56,56,57,57,58,58,59,59,60,60],"right_children":[2,4,6,8,10,12,14,16,18,20,22,24,26,28,30,32,34,36,38,40,42,-1,44,46,48,50,52,54,56,58,60,62,64,66,68,-1,70,72,74,76,78,80,82,84,86,88,90,92,94,96,98,100,102,104,106,-1,108,110,112,114,116,-1,-1,-1,-1,-1,-1,-1,-1,-1,-1,-1,-1,-1,-1,-1,-1,-1,-1,-1,-1,-1,-1,-1,-1,-1,-1,-1,-1,-1,-1,-1,-1,-1,-1,-1,-1,-1,-1,-1,-1,-1,-1,-1,-1,-1,-1,-1,-1,-1,-1,-1,-1,-1,-1,-1,-1],"split_conditions":[-7.134708E-1,-1.4994853E0,-9.31614E-2,-1.7123178E0,-8.6564916E-1,-8.854565E-1,6.8794245E-1,-1.697559E0,-1.6183295E0,-1.6477464E0,2.00001E0,1.6950955E0,2.208047E-1,6.9913375E-1,1.2141255E0,-1.7767886E0,2.00001E0,2.00001E0,-1.6477464E0,2.00001E0,-1.5917015E0,8.342873E-2,-1.1806086E0,-2.4633308E-1,-1.4202558E0,-2.4633308E-1,6.465887E-3,2.208047E-1,2.00001E0,2.00001E0,1.867769E0,-7.9791255E-2,-1.772626E0,-1.5787147E0,-1.772626E0,-2.784649E-2,-2.1148841E0,2.00001E0,-6.896539E-2,2.00001E0,2.00001E0,2.00001E0,-1.2221819E0,2.00001E0,2.00001E0,-1.2221819E0,2.00001E0,2.00001E0,2.00001E0,2.00001E0,2.00001E0,2.00001E0,1.6950955E0,2.00001E0,2.00001E0,8.983206E-2,2.00001E0,2.00001E0,4.6144518E-1,1.1550802E0,2.00001E0,3.260686E-2,7.549876E-2,-4.0056403E-3,6.1280638E-2,7.0043266E-2,1.6308062E-2,-6.608733E-2,-3.018418E-2,2.2995785E-2,7.704292E-2,2.8403688E-2,-4.357387E-2,1.4935801E-2,6.2471803E-2,9.260656E-2,-6.374609E-2,-3.6008485E-2,-7.8427695E-2,6.0638305E-2,-6.575485E-2,1.3638021E-2,-3.33134E-2,-6.276421E-2,-8.120226E-2,5.3122967E-2,-6.279363E-2,5.9243705E-2,1.1861659E-2,-2.947338E-2,6.7948096E-2,-2.2321347E-2,2.0034738E-2,3.135066E-2,-2.8783116E-2,6.458553E-2,-2.6645793E-2,-4.182561E-2,1.3323314E-2,-2.3211036E-2,3.9609715E-2,6.10374E-2,-2.4827689E-2,5.953425E-2,-4.6051454E-2,4.9456563E-2,-5.2289586E-3,2.6193816E-2,-6.1995704E-2,7.721804E-2,-6.878834E-2,4.113361E-2,1.7775713E-2,-3.554849E-2,-2.9858027E-3,2.2739688E-2,-5.4246243E-2],"split_indices":[155,153,153,154,153,153,155,153,153,155,23,154,155,153,153,153,84,65,155,70,154,0,155,155,153,155,154,155,51,28,153,156,154,153,154,0,155,122,156,8,0,137,153,93,91,153,60,35,94,84,65,1,154,23,138,0,23,2,153,155,97,0,0,0,0,0,0,0,0,0,0,0,0,0,0,0,0,0,0,0,0,0,0,0,0,0,0,0,0,0,0,0,0,0,0,0,0,0,0,0,0,0,0,0,0,0,0,0,0,0,0,0,0,0,0,0,0],"split_type":[0,0,0,0,0,0,0,0,0,0,0,0,0,0,0,0,0,0,0,0,0,0,0,0,0,0,0,0,0,0,0,0,0,0,0,0,0,0,0,0,0,0,0,0,0,0,0,0,0,0,0,0,0,0,0,0,0,0,0,0,0,0,0,0,0,0,0,0,0,0,0,0,0,0,0,0,0,0,0,0,0,0,0,0,0,0,0,0,0,0,0,0,0,0,0,0,0,0,0,0,0,0,0,0,0,0,0,0,0,0,0,0,0,0,0,0,0],"sum_hessian":[1.8559748E4,3.1009958E3,1.5458752E4,3.6153592E2,2.73946E3,6.2297104E3,9.229041E3,1.7795425E2,1.8358168E2,1.057769E3,1.6816908E3,2.6000703E3,3.6296404E3,3.5569233E3,5.6721177E3,7.122143E1,1.0673282E2,9.215404E1,9.142764E1,3.9428076E2,6.634883E2,8.445381E0,1.6732455E3,2.5251455E3,7.4924934E1,1.5211177E3,2.1085227E3,2.1682065E3,1.3887168E3,3.8360032E3,1.8361146E3,3.438952E1,3.6831913E1,3.2311049E0,1.0350172E2,1.7425373E0,9.041151E1,1.924635E1,7.21813E1,8.460045E0,3.8582074E2,1.3964381E2,5.238444E2,9.248565E2,7.48389E2,7.102795E2,1.814866E3,3.731616E1,3.760878E1,6.4887964E2,8.7223804E2,1.163697E3,9.4482556E2,1.2164557E3,9.517508E2,7.2284966E0,1.3814883E3,8.01655E1,3.7558376E3,1.3749264E3,4.6118814E2,3.3525515E0,3.1036966E1,2.0812765E1,1.6019148E1,1.9921916E0,1.2389132E0,5.5890957E1,4.761076E1,2.2337978E0,8.8177704E1,5.472525E0,1.3773823E1,3.161398E1,4.0567314E1,4.6909304E0,3.7691147E0,2.7408045E1,3.584127E2,2.6407113E0,1.370031E2,1.8261604E2,3.412284E2,7.3154106E1,8.517024E2,6.432423E0,7.4195654E2,4.3643948E2,2.7384E2,9.907545E0,1.8049584E3,3.236854E0,3.4079304E1,1.7429378E0,3.586584E1,2.439014E1,6.244895E2,5.8492184E1,8.137459E2,4.766559E1,1.1160315E3,9.1998145E2,2.4844137E1,2.0294876E1,1.1961609E3,9.070759E1,8.610432E2,1.8604706E1,1.3628837E3,7.2272553E0,7.293825E1,1.4252188E3,2.330619E3,5.00277E2,8.746494E2,1.6501753E1,4.446864E2],"tree_param":{"num_deleted":"0","num_feature":"160","num_nodes":"117","size_leaf_vector":"1"}},{"base_weights":[-2.4288173E-3,8.441505E-1,-5.7179964E-1,1.2765114E0,5.4323053E-1,-9.263496E-2,-9.709709E-1,1.3307054E0,-2.6497737E-1,3.671417E-1,9.2900115E-1,3.6795497E-1,-2.4518697E-1,-7.438961E-1,-1.2779967E0,-6.4589447E-1,1.352514E0,5.935688E-1,-3.8724175E-1,-1.5120032E0,4.1026852E-1,-2.9991952E-1,1.0091325E0,1.4851595E-1,7.952608E-1,-8.5301226E-1,-1.1197956E-1,-2.689024E-1,-9.51018E-1,-1.3161169E0,-1.4585198E-1,7.377587E-2,-9.293568E-2,6.146489E-1,1.4045479E0,-2.392401E-2,7.6816064E-1,-3.1846792E-1,-7.0885256E-2,7.118513E-2,-1.7040861E0,-3.937377E-1,5.1611227E-1,3.3284655E-1,-9.3656026E-2,1.2980227E0,7.55129E-1,-8.1078243E-1,2.4595326E-1,-6.5789944E-1,8.955087E-1,1.8756218E0,-9.105062E-1,6.826558E-1,-1.8896836E-1,-5.039864E-1,2.397319E-1,-2.0889243E-1,-1.0529586E0,-8.914321E-1,-1.3952403E0,-7.9380594E-2,3.9010295E-1,-1.1983509E-1,4.6072762E-2,2.5145883E-2,7.214725E-2,-4.037841E-3,4.7336485E-2,1.461566E-2,-2.0255385E-2,6.75408E-2,-9.184998E-2,-8.441707E-2,1.3121793E-2,-8.1415646E-2,2.7402977E-2,8.303901E-2,-2.1027409E-2,3.1841252E-2,7.013575E-2,-8.942766E-2,4.0281337E-2,8.449366E-2,-5.330151E-2,6.40039E-2,6.122792E-3,6.763142E-2,-6.529649E-2,-8.410003E-2,4.6879966E-2,1.0271051E-1,-1.5530677E-3,6.797304E-2,-4.8411213E-2,1.1112522E-2,7.371666E-2,1.3604411E-3,-3.06076E-2,5.849359E-2,-2.8381128E-2,-4.6597276E-2,2.1519177E-2,5.7195075E-2,-2.1101033E-2,9.2280075E-2,-5.3856906E-2,-6.1102282E-2,-1.3008723E-2,-3.611445E-2,-7.098941E-2,-7.6665916E-2,4.6049893E-2],"categories":[],"categories_nodes":[],"categories_segments":[],"categories_sizes":[],"default_left":[0,0,0,0,0,0,0,0,0,0,0,0,0,0,0,0,0,0,0,0,0,0,0,0,0,0,0,0,0,0,0,0,0,0,0,0,0,0,0,0,0,0,0,0,0,0,0,0,0,0,0,0,0,0,0,0,0,0,0,0,0,0,0,0,0,0,0,0,0,0,0,0,0,0,0,0,0,0,0,0,0,0,0,0,0,0,0,0,0,0,0,0,0,0,0,0,0,0,0,0,0,0,0,0,0,0,0,0,0,0,0,0,0],"id":8,"left_children":[1,3,5,7,9,11,13,15,17,19,21,23,25,27,29,31,33,35,37,39,41,43,45,47,49,51,53,55,57,59,61,-1,-1,63,65,-1,67,69,-1,-1,71,73,75,77,-1,79,81,83,85,87,89,91,93,95,97,99,101,103,105,107,109,-1,111,-1,-1,-1,-1,-1,-1,-1,-1,-1,-1,-1,-1,-1,-1,-1,-1,-1,-1,-1,-1,-1,-1,-1,-1,-1,-1,-1,-1,-1,-1,-1,-1,-1,-1,-1,-1,-1,-1,-1,-1,-1,-1,-1,-1,-1,-1,-1,-1,-1,-1],"loss_changes":[8.907869E3,9.661494E2,2.113276E3,2.5505078E2,2.9742017E2,3.5299475E2,4.192827E2,1.278418E2,1.11867075E1,2.4465689E2,1.3551941E2,1.1709424E2,3.0543494E2,3.408684E2,1.1034717E2,8.718568E1,1.1100293E2,2.8768783E0,6.0666447E0,4.064258E1,2.5077545E2,8.506229E1,9.362634E1,7.751227E1,6.2341736E1,1.0809967E2,1.8955768E2,1.2617873E2,1.8241455E2,8.201416E1,6.595721E1,0E0,0E0,1.8117853E2,9.347266E1,0E0,1.8823256E0,4.749262E0,0E0,0E0,2.8494308E1,2.9190244E2,1.7917755E2,6.2067936E1,0E0,4.076642E1,8.98736E1,5.0629642E1,9.58351E1,3.8159496E1,4.464392E1,4.940422E0,8.842401E1,9.943804E1,2.583307E2,7.749831E1,7.499216E1,8.490473E1,1.5073071E2,8.1471954E1,3.3447754E1,0E0,6.517615E1,0E0,0E0,0E0,0E0,0E0,0E0,0E0,0E0,0E0,0E0,0E0,0E0,0E0,0E0,0E0,0E0,0E0,0E0,0E0,0E0,0E0,0E0,0E0,0E0,0E0,0E0,0E0,0E0,0E0,0E0,0E0,0E0,0E0,0E0,0E0,0E0,0E0,0E0,0E0,0E0,0E0,0E0,0E0,0E0,0E0,0E0,0E0,0E0,0E0,0E0],"parents":[2147483647,0,0,1,1,2,2,3,3,4,4,5,5,6,6,7,7,8,8,9,9,10,10,11,11,12,12,13,13,14,14,15,15,16,16,17,17,18,18,19,19,20,20,21,21,22,22,23,23,24,24,25,25,26,26,27,27,28,28,29,29,30,30,33,33,34,34,36,36,37,37,40,40,41,41,42,42,43,43,45,45,46,46,47,47,48,48,49,49,50,50,51,51,52,52,53,53,54,54,55,55,56,56,57,57,58,58,59,59,60,60,62,62],"right_children":[2,4,6,8,10,12,14,16,18,20,22,24,26,28,30,32,34,36,38,40,42,44,46,48,50,52,54,56,58,60,62,-1,-1,64,66,-1,68,70,-1,-1,72,74,76,78,-1,80,82,84,86,88,90,92,94,96,98,100,102,104,106,108,110,-1,112,-1,-1,-1,-1,-1,-1,-1,-1,-1,-1,-1,-1,-1,-1,-1,-1,-1,-1,-1,-1,-1,-1,-1,-1,-1,-1,-1,-1,-1,-1,-1,-1,-1,-1,-1,-1,-1,-1,-1,-1,-1,-1,-1,-1,-1,-1,-1,-1,-1,-1],"split_conditions":[-1.810331E-1,-3.219665E-1,-3.9862625E-2,1.6950955E0,-5.8713965E-2,-2.3181304E-1,1.917809E-1,2.00001E0,-1.7569811E0,2.00001E0,2.00001E0,-5.7918593E-2,2.208047E-1,-2.714278E-1,2.2068164E0,2.00001E0,2.00001E0,2.00001E0,-1.3931883E-2,2.00001E0,2.00001E0,2.00001E0,-2.499078E-1,2.00001E0,-1.1806086E0,2.00001E0,2.00001E0,-2.4633308E-1,2.00001E0,-1.2617967E0,2.00001E0,7.377587E-2,-9.293568E-2,2.00001E0,2.00001E0,-2.392401E-2,2.00001E0,2.00001E0,-7.0885256E-2,7.118513E-2,2.00001E0,-1.5159801E-2,2.00001E0,2.00001E0,-9.3656026E-2,2.00001E0,2.00001E0,2.00001E0,2.00001E0,-1.5787147E0,2.00001E0,8.972075E-1,2.00001E0,2.00001E0,2.00001E0,2.00001E0,2.00001E0,2.00001E0,2.00001E0,-1.1806086E0,2.00001E0,-7.9380594E-2,2.00001E0,-1.1983509E-1,4.6072762E-2,2.5145883E-2,7.214725E-2,-4.037841E-3,4.7336485E-2,1.461566E-2,-2.0255385E-2,6.75408E-2,-9.184998E-2,-8.441707E-2,1.3121793E-2,-8.1415646E-2,2.7402977E-2,8.303901E-2,-2.1027409E-2,3.1841252E-2,7.013575E-2,-8.942766E-2,4.0281337E-2,8.449366E-2,-5.330151E-2,6.40039E-2,6.122792E-3,6.763142E-2,-6.529649E-2,-8.410003E-2,4.6879966E-2,1.0271051E-1,-1.5530677E-3,6.797304E-2,-4.8411213E-2,1.1112522E-2,7.371666E-2,1.3604411E-3,-3.06076E-2,5.849359E-2,-2.8381128E-2,-4.6597276E-2,2.1519177E-2,5.7195075E-2,-2.1101033E-2,9.2280075E-2,-5.3856906E-2,-6.1102282E-2,-1.3008723E-2,-3.611445E-2,-7.098941E-2,-7.6665916E-2,4.6049893E-2],"split_indices":[157,157,157,154,156,153,157,9,153,79,1,156,155,153,159,141,37,132,153,22,104,133,157,104,155,44,138,155,35,153,132,0,0,11,65,0,37,10,0,0,27,159,33,19,0,142,90,37,132,153,69,153,23,6,152,23,145,0,77,155,9,0,104,0,0,0,0,0,0,0,0,0,0,0,0,0,0,0,0,0,0,0,0,0,0,0,0,0,0,0,0,0,0,0,0,0,0,0,0,0,0,0,0,0,0,0,0,0,0,0,0,0,0],"split_type":[0,0,0,0,0,0,0,0,0,0,0,0,0,0,0,0,0,0,0,0,0,0,0,0,0,0,0,0,0,0,0,0,0,0,0,0,0,0,0,0,0,0,0,0,0,0,0,0,0,0,0,0,0,0,0,0,0,0,0,0,0,0,0,0,0,0,0,0,0,0,0,0,0,0,0,0,0,0,0,0,0,0,0,0,0,0,0,0,0,0,0,0,0,0,0,0,0,0,0,0,0,0,0,0,0,0,0,0,0,0,0,0,0],"sum_hessian":[1.8478385E4,7.43019E3,1.1048194E4,3.0478318E3,4.382358E3,5.0215566E3,6.0266377E3,2.9444507E3,1.03381195E2,3.010251E3,1.3721069E3,1.2490308E3,3.772526E3,3.466358E3,2.5602798E3,3.1820345E1,2.9126304E3,1.240661E1,9.097459E1,6.67719E1,2.943479E3,8.382322E1,1.2882837E3,8.2612787E2,4.229029E2,6.771747E2,3.095351E3,1.0532444E3,2.4131135E3,2.4767239E3,8.3555885E1,1.1495791E1,2.0324553E1,1.927112E2,2.7199192E3,1.4937775E0,1.0912832E1,8.650991E1,4.4646773E0,3.7068079E0,6.3065086E1,3.4210138E2,2.6013777E3,6.0341396E1,2.3481825E1,6.0082574E2,6.87458E2,7.5498856E1,7.50629E2,2.6932709E1,3.9597018E2,1.3321455E1,6.638532E2,2.7271127E2,2.82264E3,7.2032764E2,3.3291675E2,2.9180798E2,2.1213054E3,3.908975E2,2.0858264E3,2.2111649E1,6.1444237E1,1.7188797E1,1.755224E2,1.11675674E2,2.6082434E3,1.9917601E0,8.921072E0,1.0452118E1,7.605779E1,2.2474043E0,6.0817684E1,1.14541885E2,2.2755948E2,3.745247E1,2.563925E3,2.1406284E1,3.8935112E1,8.309718E1,5.177286E2,1.2711937E1,6.7474603E2,6.4720283E0,6.902683E1,7.90795E1,6.7154956E2,6.299887E0,2.0632822E1,5.736262E0,3.9023392E2,1.2109822E1,1.2116332E0,1.5901873E1,6.4795135E2,1.7324197E2,9.94693E1,1.8688837E3,9.537562E2,2.5745485E1,6.9458215E2,4.604602E1,2.8687073E2,3.9121838E1,2.5268614E2,1.6926088E1,2.1043794E3,2.5592435E2,1.3497314E2,7.4479454E1,2.0113469E3,1.2882614E1,4.8561623E1],"tree_param":{"num_deleted":"0","num_feature":"160","num_nodes":"113","size_leaf_vector":"1"}},{"base_weights":[-2.3260133E-3,5.4732937E-1,-8.189257E-1,1.0498751E0,1.4601374E-1,-5.794758E-1,-1.2107719E0,1.2929415E0,8.043608E-1,6.593265E-1,4.1309718E-2,1.0722296E-1,-6.8945575E-1,-1.2472751E0,-1.9619678E-1,1.3383474E0,-2.3490489E-1,-1.0401994E0,8.494831E-1,-2.6083788E-1,7.683872E-1,-1.0377101E0,8.948355E-2,-2.9950723E-1,4.4188517E-1,6.9921666E-1,-7.450965E-1,-1.0187316E0,-1.3663064E0,8.960413E-2,-6.7990917E-1,-4.222338E-1,1.3504679E0,6.3773733E-1,-3.9856574E-1,6.549902E-2,-1.3454387E0,1.5287323E0,7.7438456E-1,8.599217E-2,-5.937686E-1,-1.0040516E0,8.005868E-1,8.5772276E-2,-1.2632973E0,-4.6936506E-1,1.9584088E-1,-1.3851483E0,-1.4123975E-1,8.504303E-1,1.588774E-1,-7.950921E-2,1.0964272E0,1.3680625E-1,-8.24511E-1,-5.706684E-1,-1.3540012E0,-5.522947E-1,-1.395414E0,9.065103E-2,-1.1345755E0,-8.207066E-2,6.971122E-2,1.4095689E-2,6.836308E-2,-1.2452808E-2,4.096902E-2,-9.339217E-3,-4.4340447E-2,7.134228E-2,-8.5035466E-2,-6.912798E-2,7.829162E-2,-1.557782E-2,4.1871816E-2,8.679789E-2,-4.6311244E-2,8.0075905E-2,-1.0018271E-1,1.3136401E-2,4.6017524E-2,8.5495755E-2,-7.48905E-2,7.468978E-2,-2.6107032E-2,-2.4026357E-2,1.3266327E-2,5.5681657E-2,-7.5260475E-2,-3.9921828E-2,8.780424E-3,-7.8568794E-2,4.5917522E-2,-5.8353174E-2,1.3331452E-2,-8.207569E-2,6.9958396E-2,1.0687512E-1,-4.5375708E-3,-2.3149354E-2,-4.8220124E-2,2.2699026E-2,-3.629578E-2,7.714764E-5,-6.961081E-2,4.62443E-2,-8.1343405E-2,-6.043848E-2,-7.381962E-2,8.391718E-2,-8.024363E-2],"categories":[],"categories_nodes":[],"categories_segments":[],"categories_sizes":[],"default_left":[0,0,0,0,0,0,0,0,0,0,0,0,0,0,0,0,0,0,0,0,0,0,0,0,0,0,0,0,0,0,0,0,0,0,0,0,0,0,0,0,0,0,0,0,0,0,0,0,0,0,0,0,0,0,0,0,0,0,0,0,0,0,0,0,0,0,0,0,0,0,0,0,0,0,0,0,0,0,0,0,0,0,0,0,0,0,0,0,0,0,0,0,0,0,0,0,0,0,0,0,0,0,0,0,0,0,0,0,0,0,0],"id":9,"left_children":[1,3,5,7,9,11,13,15,17,19,21,23,25,27,29,31,33,35,37,39,41,43,45,47,49,51,53,55,57,-1,59,61,63,65,67,-1,69,71,73,-1,75,77,79,-1,81,83,85,87,89,91,93,-1,95,97,99,101,103,105,107,-1,109,-1,-1,-1,-1,-1,-1,-1,-1,-1,-1,-1,-1,-1,-1,-1,-1,-1,-1,-1,-1,-1,-1,-1,-1,-1,-1,-1,-1,-1,-1,-1,-1,-1,-1,-1,-1,-1,-1,-1,-1,-1,-1,-1,-1,-1,-1,-1,-1,-1,-1],"loss_changes":[8.215548E3,2.206205E3,6.9021533E2,2.8881836E2,3.2694916E2,3.4540845E2,1.0316211E2,1.6952417E2,2.0222461E2,1.03628845E2,2.6280807E2,8.617198E1,3.0506567E2,7.192139E1,9.561959E1,5.111963E1,1.0429416E1,4.3522343E1,1.1929602E2,7.353005E1,5.3405945E1,1.3637007E2,2.8771234E2,4.8932266E1,4.0005844E1,1.4029326E2,2.6555664E2,1.384613E2,4.1145996E1,0E0,9.236282E1,3.9844357E1,4.1836914E1,2.0784593E0,6.101491E0,0E0,5.365622E1,2.7450378E1,1.4601721E2,0E0,7.5093475E1,4.719662E1,5.810553E1,0E0,1.4221634E2,8.097058E1,1.912226E2,1.25561905E1,5.2335148E1,2.4775375E1,2.9789871E1,0E0,1.1040297E2,1.4313133E2,1.7540723E2,6.3708755E1,2.7427734E1,1.0108043E2,2.402124E1,0E0,9.264963E1,0E0,0E0,0E0,0E0,0E0,0E0,0E0,0E0,0E0,0E0,0E0,0E0,0E0,0E0,0E0,0E0,0E0,0E0,0E0,0E0,0E0,0E0,0E0,0E0,0E0,0E0,0E0,0E0,0E0,0E0,0E0,0E0,0E0,0E0,0E0,0E0,0E0,0E0,0E0,0E0,0E0,0E0,0E0,0E0,0E0,0E0,0E0,0E0,0E0,0E0],"parents":[2147483647,0,0,1,1,2,2,3,3,4,4,5,5,6,6,7,7,8,8,9,9,10,10,11,11,12,12,13,13,14,14,15,15,16,16,17,17,18,18,19,19,20,20,21,21,22,22,23,23,24,24,25,25,26,26,27,27,28,28,30,30,31,31,32,32,33,33,34,34,36,36,37,37,38,38,40,40,41,41,42,42,44,44,45,45,46,46,47,47,48,48,49,49,50,50,52,52,53,53,54,54,55,55,56,56,57,57,58,58,60,60],"right_children":[2,4,6,8,10,12,14,16,18,20,22,24,26,28,30,32,34,36,38,40,42,44,46,48,50,52,54,56,58,-1,60,62,64,66,68,-1,70,72,74,-1,76,78,80,-1,82,84,86,88,90,92,94,-1,96,98,100,102,104,106,108,-1,110,-1,-1,-1,-1,-1,-1,-1,-1,-1,-1,-1,-1,-1,-1,-1,-1,-1,-1,-1,-1,-1,-1,-1,-1,-1,-1,-1,-1,-1,-1,-1,-1,-1,-1,-1,-1,-1,-1,-1,-1,-1,-1,-1,-1,-1,-1,-1,-1,-1,-1],"split_conditions":[-8.755394E-2,-2.499078E-1,1.5889521E-1,-5.685385E-1,-5.487311E-1,-7.8641963E-1,2.2068164E0,1.1932277E1,-2.4633308E-1,-9.163535E-2,2.00001E0,-7.134708E-1,2.00001E0,-8.6564916E-1,2.00001E0,2.00001E0,-1.7569811E0,-3.2593367E-1,2.00001E0,2.00001E0,2.00001E0,2.00001E0,2.208047E-1,2.00001E0,-1.1231451E0,2.00001E0,2.00001E0,5.7709146E-1,2.00001E0,8.960413E-2,2.00001E0,2.00001E0,2.00001E0,2.00001E0,-1.0835303E0,6.549902E-2,2.00001E0,2.00001E0,2.00001E0,8.599217E-2,2.00001E0,2.00001E0,-7.134708E-1,8.5772276E-2,-1.3483456E0,2.00001E0,2.00001E0,2.00001E0,-7.88999E-2,2.00001E0,2.00001E0,-7.950921E-2,2.00001E0,2.00001E0,-4.5653716E-2,2.00001E0,2.00001E0,-1.5159801E-2,2.5237027E-1,9.065103E-2,2.00001E0,-8.207066E-2,6.971122E-2,1.4095689E-2,6.836308E-2,-1.2452808E-2,4.096902E-2,-9.339217E-3,-4.4340447E-2,7.134228E-2,-8.5035466E-2,-6.912798E-2,7.829162E-2,-1.557782E-2,4.1871816E-2,8.679789E-2,-4.6311244E-2,8.0075905E-2,-1.0018271E-1,1.3136401E-2,4.6017524E-2,8.5495755E-2,-7.48905E-2,7.468978E-2,-2.6107032E-2,-2.4026357E-2,1.3266327E-2,5.5681657E-2,-7.5260475E-2,-3.9921828E-2,8.780424E-3,-7.8568794E-2,4.5917522E-2,-5.8353174E-2,1.3331452E-2,-8.207569E-2,6.9958396E-2,1.0687512E-1,-4.5375708E-3,-2.3149354E-2,-4.8220124E-2,2.2699026E-2,-3.629578E-2,7.714764E-5,-6.961081E-2,4.62443E-2,-8.1343405E-2,-6.043848E-2,-7.381962E-2,8.391718E-2,-8.024363E-2],"split_indices":[157,157,157,153,153,153,159,156,155,156,1,155,137,153,32,137,153,157,32,132,91,25,155,8,153,66,61,157,9,0,106,9,68,132,153,0,122,1,65,0,96,22,155,0,159,94,3,138,156,45,150,0,21,8,157,0,137,159,157,0,122,0,0,0,0,0,0,0,0,0,0,0,0,0,0,0,0,0,0,0,0,0,0,0,0,0,0,0,0,0,0,0,0,0,0,0,0,0,0,0,0,0,0,0,0,0,0,0,0,0,0],"split_type":[0,0,0,0,0,0,0,0,0,0,0,0,0,0,0,0,0,0,0,0,0,0,0,0,0,0,0,0,0,0,0,0,0,0,0,0,0,0,0,0,0,0,0,0,0,0,0,0,0,0,0,0,0,0,0,0,0,0,0,0,0,0,0,0,0,0,0,0,0,0,0,0,0,0,0,0,0,0,0,0,0,0,0,0,0,0,0,0,0,0,0,0,0,0,0,0,0,0,0,0,0,0,0,0,0,0,0,0,0,0,0],"sum_hessian":[1.8301615E4,1.0938926E4,7.3626895E3,4.8561797E3,6.082746E3,4.571569E3,2.7911208E3,2.4381113E3,2.4180684E3,1.0296376E3,5.0531084E3,6.310995E2,3.9404692E3,2.6939658E3,9.715504E1,2.367865E3,7.0246475E1,5.721263E1,2.3608557E3,1.0895693E2,9.206806E2,2.1508113E2,4.8380273E3,2.8492377E2,3.4617575E2,1.5135727E2,3.789112E3,9.258554E2,1.7681105E3,1.8481747E1,7.8673294E1,1.5958391E1,2.3519065E3,1.0636389E1,5.961009E1,6.1981945E0,5.101444E1,2.3310617E2,2.1277495E3,1.5079537E1,9.3877396E1,1.5888905E1,9.047917E2,1.5788439E1,1.992927E2,7.729887E2,4.0650386E3,3.5265686E1,2.4965807E2,1.4084679E2,2.0532896E2,2.1933847E1,1.2942343E2,3.129591E2,3.4761528E3,3.9742633E2,5.284291E2,6.1731255E1,1.7063793E3,1.1674511E1,6.699878E1,9.606811E0,6.351581E0,3.666618E1,2.3152405E3,1.7451789E0,8.89121E0,4.2540287E1,1.70698E1,5.452295E0,4.5562145E1,2.4768689E0,2.306293E2,1.1654536E2,2.0112042E3,1.1196311E1,8.268108E1,4.2385426E0,1.1650362E1,1.6535881E2,7.394329E2,1.411008E1,1.8518262E2,1.9521408E1,7.5346735E2,3.7815833E2,3.6868804E3,1.2373664E0,3.402832E1,8.071714E1,1.6894093E2,3.2384596E0,1.3760832E2,1.4692985E1,1.9063599E2,1.2445556E1,1.1697787E2,3.1103413E1,2.818557E2,9.71025E2,2.505128E3,5.2038967E1,3.4538736E2,1.4515162E1,5.1391394E2,2.6054413E1,3.567684E1,5.2114215E2,1.185237E3,9.229149E0,5.7769634E1],"tree_param":{"num_deleted":"0","num_feature":"160","num_nodes":"111","size_leaf_vector":"1"}},{"base_weights":[1.7680913E-3,7.933428E-1,-5.270258E-1,1.2115858E0,5.0684464E-1,-9.286895E-2,-9.1233754E-1,1.2648268E0,-2.4091645E-1,3.6019892E-1,9.136016E-1,-3.935502E-1,9.242908E-2,-7.0593685E-1,-1.2308805E0,-5.627979E-1,1.2840052E0,-5.121315E-3,-1.0459393E0,-1.3121073E0,3.9945325E-1,-3.5654035E-1,1.0000944E0,-7.053258E-1,-2.0223531E-1,5.936505E-1,-1.7391117E-2,-3.5651296E-1,-9.6462816E-1,-1.2641613E0,-2.2998725E-1,-1.727957E0,6.984292E-2,5.743699E-1,1.3347131E0,3.166225E-1,-2.4353686E-1,-8.580917E-3,-1.1283588E0,7.5027786E-2,-1.5920722E0,-3.3302453E-1,4.9412346E-1,-8.762535E-2,2.0020033E-1,-7.811437E-1,1.0366403E0,9.350033E-1,-8.028499E-1,9.162986E-2,-2.3395284E-1,-9.405069E-2,7.317995E-1,-5.945896E-1,1.2870815E-1,-5.9077686E-1,9.891264E-2,7.484995E-2,-1.0307724E0,-1.0334867E0,-1.3914257E0,-7.451687E-2,3.5115778E-1,-1.0622356E-2,-9.077529E-2,-1.1385832E-1,4.385655E-2,2.1893024E-3,6.7540765E-2,-2.5801731E-2,2.1176437E-2,1.02744615E-2,-1.9935757E-2,1.3738102E-3,-6.076009E-2,6.1799373E-2,-8.489097E-2,-8.107015E-2,1.1873371E-2,6.201908E-2,2.0635517E-2,3.827181E-2,-9.4023466E-2,5.689034E-2,-8.9187466E-2,3.939298E-3,5.5290557E-2,-6.642264E-2,7.228258E-2,1.6618077E-2,-4.6639986E-2,2.3486761E-2,-1.6748345E-2,-8.6751394E-2,1.0277391E-2,-2.0679915E-2,4.2505007E-2,-9.404263E-3,-5.3295035E-2,-9.652915E-2,7.733488E-3,5.2846256E-3,-3.810792E-2,-5.817182E-2,1.1490725E-2,6.2618256E-2,-4.0625002E-2,4.1607242E-2,-5.3426065E-2,-3.0444637E-2,-6.6242695E-2,-3.359427E-2,-7.063973E-2,-2.9964263E-2,6.931001E-2],"categories":[],"categories_nodes":[],"categories_segments":[],"categories_sizes":[],"default_left":[0,0,0,0,0,0,0,0,0,0,0,0,0,0,0,0,0,0,0,0,0,0,0,0,0,0,0,0,0,0,0,0,0,0,0,0,0,0,0,0,0,0,0,0,0,0,0,0,0,0,0,0,0,0,0,0,0,0,0,0,0,0,0,0,0,0,0,0,0,0,0,0,0,0,0,0,0,0,0,0,0,0,0,0,0,0,0,0,0,0,0,0,0,0,0,0,0,0,0,0,0,0,0,0,0,0,0,0,0,0,0,0,0,0,0],"id":10,"left_children":[1,3,5,7,9,11,13,15,17,19,21,23,25,27,29,31,33,35,37,39,41,43,45,47,49,51,53,55,57,59,61,63,-1,65,67,69,71,-1,73,-1,75,77,79,-1,81,83,85,87,89,-1,91,93,95,97,99,101,103,105,107,109,111,-1,113,-1,-1,-1,-1,-1,-1,-1,-1,-1,-1,-1,-1,-1,-1,-1,-1,-1,-1,-1,-1,-1,-1,-1,-1,-1,-1,-1,-1,-1,-1,-1,-1,-1,-1,-1,-1,-1,-1,-1,-1,-1,-1,-1,-1,-1,-1,-1,-1,-1,-1,-1,-1],"loss_changes":[7.5866235E3,8.691714E2,1.8176313E3,2.284497E2,2.567329E2,2.8475684E2,3.7761865E2,1.0047803E2,1.9955074E1,2.0856912E2,1.2574188E2,1.16089935E2,1.7409206E2,3.1563196E2,7.5061035E1,7.148408E1,1.0059277E2,6.3930526E0,1.5226746E0,5.9808945E1,2.1494382E2,5.7477295E1,7.038745E1,1.1923111E2,7.845929E1,5.4072327E1,2.189212E2,1.5887703E2,1.3813684E2,6.2826416E1,5.4738556E1,2.1906548E0,0E0,1.6569266E2,5.457129E1,3.3767607E0,3.4166133E0,0E0,2.200142E0,0E0,2.20766E1,2.613841E2,1.6615259E2,0E0,6.429366E1,4.446952E1,6.933386E1,5.049378E1,1.0351691E2,0E0,8.4842064E1,4.7540276E1,6.45052E1,1.0026433E2,1.1106105E2,1.1742752E2,8.396068E1,1.2750977E2,1.3365308E2,9.596295E1,2.0697998E1,0E0,5.1463703E1,0E0,0E0,0E0,0E0,0E0,0E0,0E0,0E0,0E0,0E0,0E0,0E0,0E0,0E0,0E0,0E0,0E0,0E0,0E0,0E0,0E0,0E0,0E0,0E0,0E0,0E0,0E0,0E0,0E0,0E0,0E0,0E0,0E0,0E0,0E0,0E0,0E0,0E0,0E0,0E0,0E0,0E0,0E0,0E0,0E0,0E0,0E0,0E0,0E0,0E0,0E0,0E0],"parents":[2147483647,0,0,1,1,2,2,3,3,4,4,5,5,6,6,7,7,8,8,9,9,10,10,11,11,12,12,13,13,14,14,15,15,16,16,17,17,18,18,19,19,20,20,21,21,22,22,23,23,24,24,25,25,26,26,27,27,28,28,29,29,30,30,31,31,33,33,34,34,35,35,36,36,38,38,40,40,41,41,42,42,44,44,45,45,46,46,47,47,48,48,50,50,51,51,52,52,53,53,54,54,55,55,56,56,57,57,58,58,59,59,60,60,62,62],"right_children":[2,4,6,8,10,12,14,16,18,20,22,24,26,28,30,32,34,36,38,40,42,44,46,48,50,52,54,56,58,60,62,64,-1,66,68,70,72,-1,74,-1,76,78,80,-1,82,84,86,88,90,-1,92,94,96,98,100,102,104,106,108,110,112,-1,114,-1,-1,-1,-1,-1,-1,-1,-1,-1,-1,-1,-1,-1,-1,-1,-1,-1,-1,-1,-1,-1,-1,-1,-1,-1,-1,-1,-1,-1,-1,-1,-1,-1,-1,-1,-1,-1,-1,-1,-1,-1,-1,-1,-1,-1,-1,-1,-1,-1,-1,-1,-1],"split_conditions":[-1.810331E-1,-3.219665E-1,-3.3781983E-2,1.6950955E0,-5.428756E-2,-8.219108E-2,2.1938957E-1,2.00001E0,-6.6757536E-1,2.00001E0,2.00001E0,2.00001E0,-6.6757536E-1,6.529763E-2,2.2068164E0,2.00001E0,2.00001E0,-1.4400631E0,2.00001E0,2.00001E0,2.00001E0,2.00001E0,2.00001E0,2.00001E0,2.00001E0,-7.3616676E-2,2.208047E-1,-2.4633308E-1,2.00001E0,-9.052639E-1,2.00001E0,-8.981572E-1,6.984292E-2,2.00001E0,2.00001E0,2.00001E0,1.1932277E1,-8.580917E-3,2.00001E0,7.5027786E-2,2.00001E0,-1.5159801E-2,2.00001E0,-8.762535E-2,7.25499E-1,-2.6453283E-1,2.00001E0,2.208047E-1,-5.685385E-1,9.162986E-2,2.00001E0,2.00001E0,2.00001E0,-1.3931883E-2,2.00001E0,-1.1825672E0,2.00001E0,-1.5159801E-2,2.00001E0,6.1353976E-1,2.00001E0,-7.451687E-2,-1.1005955E0,-1.0622356E-2,-9.077529E-2,-1.1385832E-1,4.385655E-2,2.1893024E-3,6.7540765E-2,-2.5801731E-2,2.1176437E-2,1.02744615E-2,-1.9935757E-2,1.3738102E-3,-6.076009E-2,6.1799373E-2,-8.489097E-2,-8.107015E-2,1.1873371E-2,6.201908E-2,2.0635517E-2,3.827181E-2,-9.4023466E-2,5.689034E-2,-8.9187466E-2,3.939298E-3,5.5290557E-2,-6.642264E-2,7.228258E-2,1.6618077E-2,-4.6639986E-2,2.3486761E-2,-1.6748345E-2,-8.6751394E-2,1.0277391E-2,-2.0679915E-2,4.2505007E-2,-9.404263E-3,-5.3295035E-2,-9.652915E-2,7.733488E-3,5.2846256E-3,-3.810792E-2,-5.817182E-2,1.1490725E-2,6.2618256E-2,-4.0625002E-2,4.1607242E-2,-5.3426065E-2,-3.0444637E-2,-6.6242695E-2,-3.359427E-2,-7.063973E-2,-2.9964263E-2,6.931001E-2],"split_indices":[157,157,157,154,156,156,157,9,153,79,1,151,153,153,159,151,37,153,119,22,104,151,90,25,58,156,155,155,9,153,132,154,0,68,38,35,156,0,0,0,27,159,132,0,159,157,18,155,153,0,0,18,3,153,60,153,29,159,85,157,9,0,158,0,0,0,0,0,0,0,0,0,0,0,0,0,0,0,0,0,0,0,0,0,0,0,0,0,0,0,0,0,0,0,0,0,0,0,0,0,0,0,0,0,0,0,0,0,0,0,0,0,0,0,0],"split_type":[0,0,0,0,0,0,0,0,0,0,0,0,0,0,0,0,0,0,0,0,0,0,0,0,0,0,0,0,0,0,0,0,0,0,0,0,0,0,0,0,0,0,0,0,0,0,0,0,0,0,0,0,0,0,0,0,0,0,0,0,0,0,0,0,0,0,0,0,0,0,0,0,0,0,0,0,0,0,0,0,0,0,0,0,0,0,0,0,0,0,0,0,0,0,0,0,0,0,0,0,0,0,0,0,0,0,0,0,0,0,0,0,0,0,0],"sum_hessian":[1.8122674E4,7.257742E3,1.0864933E4,2.9491753E3,4.308567E3,5.1092427E3,5.7556895E3,2.845021E3,1.0415425E2,3.1682292E3,1.1403376E3,1.947664E3,3.1615789E3,3.4945823E3,2.2611072E3,2.9250088E1,2.815771E3,8.13367E1,2.2817554E1,7.191912E1,3.09631E3,7.250371E1,1.067834E3,7.396346E2,1.2080294E3,5.6742676E2,2.594152E3,1.4876018E3,2.0069803E3,2.188088E3,7.301938E1,1.841767E1,1.0832418E1,1.8860823E2,2.6271626E3,3.4478985E1,4.685771E1,2.2311702E0,2.0586384E1,6.115914E0,6.580321E1,3.5409613E2,2.742214E3,2.005933E1,5.2444378E1,2.1058758E1,1.0467753E3,4.1024597E1,6.9861E2,1.7669456E1,1.19036E3,9.497305E1,4.724537E2,5.23374E2,2.070778E3,9.821182E2,5.054836E2,1.20060486E2,1.8869199E3,7.812127E2,1.4068751E3,2.2549969E1,5.046941E1,1.1929934E0,1.7224676E1,1.7477373E1,1.7113086E2,3.2411743E1,2.594751E3,3.487673E0,3.0991312E1,1.1951233E1,3.490648E1,1.4864243E0,1.909996E1,1.986584E0,6.3816624E1,1.08107635E2,2.459885E2,2.6833508E2,2.473879E3,4.1737946E1,1.0706433E1,7.1805663E0,1.3878191E1,7.064507E1,9.761301E2,7.2568784E0,3.376772E1,7.159707E1,6.270129E2,1.489674E2,1.0413926E3,1.3922856E1,8.10502E1,4.399491E1,4.284588E2,2.8175784E2,2.4161613E2,2.4868017E1,2.04591E3,1.9402252E2,7.880957E2,4.675124E1,4.5873236E2,5.141772E1,6.864277E1,3.705781E1,1.849862E3,3.1917935E2,4.620334E2,4.1511944E1,1.3653632E3,2.65294E1,2.394001E1],"tree_param":{"num_deleted":"0","num_feature":"160","num_nodes":"115","size_leaf_vector":"1"}},{"base_weights":[-3.0341113E-3,5.093946E-1,-7.3900366E-1,1.0046722E0,1.5449768E-1,-4.1988882E-1,-1.0148224E0,1.244373E0,7.8191483E-1,5.270215E-1,1.4735289E-2,8.6788327E-1,-4.7452462E-1,-8.413142E-1,-1.2551942E0,1.293696E0,-4.768284E-2,-6.152796E-1,8.301926E-1,-1.6703837E-1,6.243457E-1,-3.0728826E-1,2.068077E-1,-7.6362304E-2,1.1514415E0,-2.0870537E-1,-7.4882704E-1,-4.0284088E-1,-1.0815402E0,-6.8967164E-1,-1.3357723E0,-4.7759032E-1,1.3058357E0,2.9292384E-1,-3.142119E-1,-1.5454737E0,9.3241733E-1,6.059285E-2,9.1521454E-1,8.726307E-2,-4.7803372E-1,-1.2096626E0,6.5557456E-1,1.2437232E0,-4.3224764E-1,-8.882194E-2,2.4203011E-1,-9.7752854E-2,1.3715028E0,-4.1088575E-1,2.4940185E-1,-1.0958027E0,-4.8179612E-1,-1.1535596E0,-2.2819625E-1,-3.306108E-1,-1.1769003E0,-1.1482383E0,-3.2416862E-1,4.285856E-1,-1.3437531E0,-7.601047E-2,6.400015E-2,1.444042E-2,6.611589E-2,4.7309673E-3,3.55198E-2,1.3274783E-2,-2.1843325E-2,-3.1247517E-2,-1.0194844E-1,-8.8697486E-2,6.482578E-2,5.386288E-2,-1.8130137E-2,-5.236124E-2,4.683625E-2,5.9731044E-2,-3.3643287E-2,7.510549E-2,-9.926709E-2,-5.638053E-3,3.6198698E-2,-8.730256E-2,8.043468E-2,5.6290425E-2,-2.5611127E-2,-4.424432E-2,1.44059425E-2,-7.639139E-2,7.952027E-2,1.0386418E-2,-3.0544003E-2,-5.458647E-2,2.1498041E-2,-1.3598432E-2,-6.1314113E-2,9.539186E-2,-2.6151968E-2,2.0913683E-2,-6.149084E-2,5.577014E-2,-1.6169006E-2,1.15702964E-1,-2.3033258E-2,2.4704568E-2,-6.0758967E-2,6.9094606E-2,-5.9834488E-2,-3.0670774E-3,-5.532087E-2,-5.9783556E-2,1.0118619E-1,-6.808501E-2,-2.8694032E-2],"categories":[],"categories_nodes":[],"categories_segments":[],"categories_sizes":[],"default_left":[0,0,0,0,0,0,0,0,0,0,0,0,0,0,0,0,0,0,0,0,0,0,0,0,0,0,0,0,0,0,0,0,0,0,0,0,0,0,0,0,0,0,0,0,0,0,0,0,0,0,0,0,0,0,0,0,0,0,0,0,0,0,0,0,0,0,0,0,0,0,0,0,0,0,0,0,0,0,0,0,0,0,0,0,0,0,0,0,0,0,0,0,0,0,0,0,0,0,0,0,0,0,0,0,0,0,0,0,0,0,0,0,0,0,0],"id":11,"left_children":[1,3,5,7,9,11,13,15,17,19,21,23,25,27,29,31,33,35,37,39,41,43,45,-1,47,49,51,53,55,57,59,61,63,65,67,69,71,73,75,-1,77,79,81,83,85,-1,87,-1,89,91,93,95,97,99,101,103,105,107,109,111,113,-1,-1,-1,-1,-1,-1,-1,-1,-1,-1,-1,-1,-1,-1,-1,-1,-1,-1,-1,-1,-1,-1,-1,-1,-1,-1,-1,-1,-1,-1,-1,-1,-1,-1,-1,-1,-1,-1,-1,-1,-1,-1,-1,-1,-1,-1,-1,-1,-1,-1,-1,-1,-1,-1],"loss_changes":[6.7562363E3,1.8562344E3,6.468093E2,2.3442188E2,3.2038806E2,2.4039484E2,1.6341724E2,1.3528125E2,1.5482544E2,1.1350879E2,2.7690826E2,9.628047E1,2.3847125E2,2.4113245E2,7.432251E1,4.457202E1,7.2623954E0,1.1226965E2,1.4466467E2,1.2409147E2,8.513458E1,3.247224E2,1.9632137E2,0E0,8.8142456E1,1.5416992E2,1.486676E2,1.06372604E2,1.05666504E2,3.448974E1,2.0911865E1,2.8781902E1,3.3649902E1,2.8461554E0,3.300963E0,2.0739777E1,3.139121E1,9.5520744E1,8.5053345E1,0E0,5.9153164E1,5.5582577E1,7.621045E1,1.3917441E2,1.9355222E2,0E0,1.4340767E2,0E0,7.689604E1,1.4295654E2,1.2395923E2,7.48598E1,9.085579E1,1.888414E1,8.490579E1,5.8944324E1,8.463452E1,1.2914749E1,2.4015049E1,2.123358E1,1.9086914E1,0E0,0E0,0E0,0E0,0E0,0E0,0E0,0E0,0E0,0E0,0E0,0E0,0E0,0E0,0E0,0E0,0E0,0E0,0E0,0E0,0E0,0E0,0E0,0E0,0E0,0E0,0E0,0E0,0E0,0E0,0E0,0E0,0E0,0E0,0E0,0E0,0E0,0E0,0E0,0E0,0E0,0E0,0E0,0E0,0E0,0E0,0E0,0E0,0E0,0E0,0E0,0E0,0E0,0E0],"parents":[2147483647,0,0,1,1,2,2,3,3,4,4,5,5,6,6,7,7,8,8,9,9,10,10,11,11,12,12,13,13,14,14,15,15,16,16,17,17,18,18,19,19,20,20,21,21,22,22,24,24,25,25,26,26,27,27,28,28,29,29,30,30,31,31,32,32,33,33,34,34,35,35,36,36,37,37,38,38,40,40,41,41,42,42,43,43,44,44,46,46,48,48,49,49,50,50,51,51,52,52,53,53,54,54,55,55,56,56,57,57,58,58,59,59,60,60],"right_children":[2,4,6,8,10,12,14,16,18,20,22,24,26,28,30,32,34,36,38,40,42,44,46,-1,48,50,52,54,56,58,60,62,64,66,68,70,72,74,76,-1,78,80,82,84,86,-1,88,-1,90,92,94,96,98,100,102,104,106,108,110,112,114,-1,-1,-1,-1,-1,-1,-1,-1,-1,-1,-1,-1,-1,-1,-1,-1,-1,-1,-1,-1,-1,-1,-1,-1,-1,-1,-1,-1,-1,-1,-1,-1,-1,-1,-1,-1,-1,-1,-1,-1,-1,-1,-1,-1,-1,-1,-1,-1,-1,-1,-1,-1,-1,-1],"split_conditions":[-9.3854725E-2,-2.5948372E-1,5.31472E-2,-6.4776796E-1,-1.9219829E-1,2.00001E0,3.2077762E-1,1.6950955E0,2.00001E0,-9.163535E-2,2.00001E0,2.00001E0,5.406747E-1,-3.7046468E-1,-1.4004483E0,2.00001E0,-1.4202558E0,-5.3267706E-2,2.208047E-1,2.00001E0,2.00001E0,2.00001E0,2.00001E0,-7.6362304E-2,2.00001E0,2.208047E-1,6.8794245E-1,-8.447368E-2,2.00001E0,-1.6477464E0,2.00001E0,2.00001E0,2.00001E0,-1.5589074E0,2.00001E0,2.00001E0,2.00001E0,-3.2912827E-1,2.00001E0,8.726307E-2,2.00001E0,2.00001E0,2.00001E0,2.00001E0,2.00001E0,-8.882194E-2,2.00001E0,-9.7752854E-2,2.00001E0,-9.250713E-1,2.00001E0,2.00001E0,2.00001E0,2.00001E0,2.00001E0,2.00001E0,2.00001E0,2.00001E0,1.4187157E0,2.00001E0,2.2068164E0,-7.601047E-2,6.400015E-2,1.444042E-2,6.611589E-2,4.7309673E-3,3.55198E-2,1.3274783E-2,-2.1843325E-2,-3.1247517E-2,-1.0194844E-1,-8.8697486E-2,6.482578E-2,5.386288E-2,-1.8130137E-2,-5.236124E-2,4.683625E-2,5.9731044E-2,-3.3643287E-2,7.510549E-2,-9.926709E-2,-5.638053E-3,3.6198698E-2,-8.730256E-2,8.043468E-2,5.6290425E-2,-2.5611127E-2,-4.424432E-2,1.44059425E-2,-7.639139E-2,7.952027E-2,1.0386418E-2,-3.0544003E-2,-5.458647E-2,2.1498041E-2,-1.3598432E-2,-6.1314113E-2,9.539186E-2,-2.6151968E-2,2.0913683E-2,-6.149084E-2,5.577014E-2,-1.6169006E-2,1.15702964E-1,-2.3033258E-2,2.4704568E-2,-6.0758967E-2,6.9094606E-2,-5.9834488E-2,-3.0670774E-3,-5.532087E-2,-5.9783556E-2,1.0118619E-1,-6.808501E-2,-2.8694032E-2],"split_indices":[157,157,157,153,153,137,157,154,79,156,151,104,153,153,153,137,153,156,155,132,91,138,11,0,29,155,155,156,35,155,15,9,68,153,10,150,16,157,14,0,96,135,3,0,80,0,28,0,21,153,145,35,34,94,61,103,85,70,157,35,159,0,0,0,0,0,0,0,0,0,0,0,0,0,0,0,0,0,0,0,0,0,0,0,0,0,0,0,0,0,0,0,0,0,0,0,0,0,0,0,0,0,0,0,0,0,0,0,0,0,0,0,0,0,0],"split_type":[0,0,0,0,0,0,0,0,0,0,0,0,0,0,0,0,0,0,0,0,0,0,0,0,0,0,0,0,0,0,0,0,0,0,0,0,0,0,0,0,0,0,0,0,0,0,0,0,0,0,0,0,0,0,0,0,0,0,0,0,0,0,0,0,0,0,0,0,0,0,0,0,0,0,0,0,0,0,0,0,0,0,0,0,0,0,0,0,0,0,0,0,0,0,0,0,0,0,0,0,0,0,0,0,0,0,0,0,0,0,0,0,0,0,0],"sum_hessian":[1.7912785E4,1.0560324E4,7.35246E3,4.4075386E3,6.152786E3,3.409863E3,3.9425972E3,2.1208186E3,2.2867197E3,1.6778527E3,4.4749336E3,1.3817508E2,3.271688E3,2.2923823E3,1.650215E3,2.042834E3,7.7984695E1,7.598259E1,2.210737E3,2.0625372E2,1.471599E3,1.6716647E3,2.8032688E3,1.4162525E1,1.2401256E2,1.6624308E3,1.6092571E3,8.1233746E2,1.4800448E3,2.0699767E2,1.4432173E3,1.3644487E1,2.0291895E3,3.4191353E1,4.379334E1,4.7459812E1,2.8522776E1,2.2010533E2,1.9906318E3,2.820574E1,1.7804797E2,2.400653E1,1.4475924E3,1.2397078E2,1.5476938E3,4.8054585E1,2.7552144E3,7.6822214E0,1.1633034E2,1.1534652E3,5.089656E2,6.985147E2,9.107424E2,1.5225528E2,6.6008215E2,1.67275E2,1.3127699E3,9.086067E1,1.1613699E2,6.261481E0,1.4369558E3,8.648931E0,4.9955564E0,3.265625E1,1.9965332E3,2.4012E1,1.0179353E1,7.4443274E0,3.6349014E1,1.7354534E1,3.0105276E1,2.923089E0,2.5599688E1,6.423786E1,1.5586748E2,2.106582E1,1.969566E3,1.8040106E1,1.6000787E2,5.131236E0,1.8875294E1,1.1828126E2,1.3293112E3,1.307539E1,1.1089539E2,7.49258E1,1.4727681E3,1.075405E2,2.6476738E3,7.7467237E0,1.0858361E2,2.8179376E2,8.7167145E2,5.979347E1,4.4917215E2,9.5926895E1,6.025878E2,1.4684158E1,8.9605817E2,6.837338E0,1.4541795E2,4.2959183E1,6.17123E2,7.053252E0,1.6022174E2,2.9132772E1,1.2836371E3,1.1901443E0,8.9670525E1,8.77368E1,2.8400192E1,3.2265053E0,3.0349758E0,1.4034696E3,3.3486176E1],"tree_param":{"num_deleted":"0","num_feature":"160","num_nodes":"115","size_leaf_vector":"1"}},{"base_weights":[-1.0408409E-3,6.3127697E-1,-5.590372E-1,1.0173285E0,2.8950337E-1,-2.2614083E-1,-9.318914E-1,1.2071455E0,7.7541625E-1,-7.968715E-1,3.42388E-1,1.190151E-1,-3.8185248E-1,-7.770552E-1,-1.219963E0,-8.707788E-2,1.2277416E0,8.419233E-1,-2.6407582E-1,7.363472E-2,-9.104576E-1,-1.3045499E0,3.7334868E-1,-4.7437707E-1,2.7296618E-1,-9.7252274E-1,-2.2243565E-1,-1.356381E-1,-9.1026556E-1,-6.89656E-1,-1.306538E0,7.044462E-2,-1.5441519E0,4.3536532E-1,1.2626361E0,1.1133866E0,5.7691234E-1,3.0471212E-1,-5.2919066E-1,-1.8859403E-1,-1.341087E0,-9.338883E-2,-4.5171347E-1,7.700388E-1,2.625344E-1,4.1450626E-1,-6.8692714E-1,-9.855178E-2,4.8393282E-1,1.0257417E0,-1.0115623E0,9.586121E-1,-2.6960772E-1,-8.61266E-1,1.7237647E-2,7.194415E-2,-9.604831E-1,-3.787718E-1,-1.240312E0,-4.507964E-1,-1.3267326E0,2.4187274E-3,-8.2883105E-2,-1.0534704E-1,4.426832E-2,3.366543E-2,6.563604E-2,-1.13407984E-1,5.764997E-2,-1.2404131E-2,3.8543314E-2,5.961963E-3,5.3809196E-2,-1.7536245E-2,-4.486204E-2,-8.303468E-2,3.982526E-2,7.5876154E-2,-7.486153E-2,8.269614E-2,-7.7295445E-2,8.613998E-3,4.4913884E-2,-4.7374655E-2,1.4975274E-2,-5.853218E-2,2.9731242E-2,9.744733E-2,-3.8064245E-2,6.6731945E-2,-1.0875369E-2,-7.433385E-2,2.7360676E-2,9.0346165E-2,-6.2474143E-2,1.1938895E-2,-5.3202208E-2,-8.003386E-2,6.356218E-2,2.3892738E-2,-1.7571036E-2,3.276829E-2,-5.4848738E-2,5.2700378E-2,-2.9811168E-3,7.622289E-2,-2.840215E-2,2.5912529E-2,-4.954907E-2,-6.633851E-2,-8.982593E-3,4.90625E-2,-6.49255E-2,9.184925E-2,-3.9187137E-2,-7.0708334E-2,-5.867086E-2],"categories":[],"categories_nodes":[],"categories_segments":[],"categories_sizes":[],"default_left":[0,0,0,0,0,0,0,0,0,0,0,0,0,0,0,0,0,0,0,0,0,0,0,0,0,0,0,0,0,0,0,0,0,0,0,0,0,0,0,0,0,0,0,0,0,0,0,0,0,0,0,0,0,0,0,0,0,0,0,0,0,0,0,0,0,0,0,0,0,0,0,0,0,0,0,0,0,0,0,0,0,0,0,0,0,0,0,0,0,0,0,0,0,0,0,0,0,0,0,0,0,0,0,0,0,0,0,0,0,0,0,0,0,0,0,0,0],"id":12,"left_children":[1,3,5,7,9,11,13,15,17,19,21,23,25,27,29,31,33,35,37,-1,39,41,43,45,47,49,51,53,55,57,59,-1,61,63,65,67,69,71,73,75,77,-1,79,81,83,85,87,89,91,93,95,97,99,101,103,105,107,109,111,113,115,-1,-1,-1,-1,-1,-1,-1,-1,-1,-1,-1,-1,-1,-1,-1,-1,-1,-1,-1,-1,-1,-1,-1,-1,-1,-1,-1,-1,-1,-1,-1,-1,-1,-1,-1,-1,-1,-1,-1,-1,-1,-1,-1,-1,-1,-1,-1,-1,-1,-1,-1,-1,-1,-1,-1,-1],"loss_changes":[6.2850625E3,1.1014893E3,1.174321E3,1.7910522E2,2.5482523E2,2.687998E2,1.9812622E2,5.862207E1,1.1959265E2,5.443869E1,2.1595602E2,1.422166E2,3.242881E2,2.4814453E2,7.0653076E1,7.9164955E1,5.9196777E1,1.161228E2,1.5932903E1,0E0,6.0915176E1,3.6716522E1,1.8216089E2,6.088765E1,9.689078E1,5.815204E1,1.5152208E2,5.5574577E1,1.1873291E2,3.733687E1,2.2536377E1,0E0,3.4008865E0,1.0788576E2,6.0190918E1,1.0987097E2,1.3193985E2,4.720342E0,4.3951817E0,1.0963267E2,5.7211624E1,0E0,7.725264E1,6.9242615E1,1.4541534E2,1.854753E1,5.229451E1,7.6726425E1,9.910942E1,2.807547E1,4.7408936E1,8.564447E1,1.5987169E2,3.1883118E1,3.3106533E1,1.10509865E2,1.0373804E2,2.667846E1,1.1520676E1,2.6102114E1,1.586499E1,0E0,0E0,0E0,0E0,0E0,0E0,0E0,0E0,0E0,0E0,0E0,0E0,0E0,0E0,0E0,0E0,0E0,0E0,0E0,0E0,0E0,0E0,0E0,0E0,0E0,0E0,0E0,0E0,0E0,0E0,0E0,0E0,0E0,0E0,0E0,0E0,0E0,0E0,0E0,0E0,0E0,0E0,0E0,0E0,0E0,0E0,0E0,0E0,0E0,0E0,0E0,0E0,0E0,0E0,0E0,0E0],"parents":[2147483647,0,0,1,1,2,2,3,3,4,4,5,5,6,6,7,7,8,8,9,9,10,10,11,11,12,12,13,13,14,14,15,15,16,16,17,17,18,18,20,20,21,21,22,22,23,23,24,24,25,25,26,26,27,27,28,28,29,29,30,30,32,32,33,33,34,34,35,35,36,36,37,37,38,38,39,39,40,40,42,42,43,43,44,44,45,45,46,46,47,47,48,48,49,49,50,50,51,51,52,52,53,53,54,54,55,55,56,56,57,57,58,58,59,59,60,60],"right_children":[2,4,6,8,10,12,14,16,18,20,22,24,26,28,30,32,34,36,38,-1,40,42,44,46,48,50,52,54,56,58,60,-1,62,64,66,68,70,72,74,76,78,-1,80,82,84,86,88,90,92,94,96,98,100,102,104,106,108,110,112,114,116,-1,-1,-1,-1,-1,-1,-1,-1,-1,-1,-1,-1,-1,-1,-1,-1,-1,-1,-1,-1,-1,-1,-1,-1,-1,-1,-1,-1,-1,-1,-1,-1,-1,-1,-1,-1,-1,-1,-1,-1,-1,-1,-1,-1,-1,-1,-1,-1,-1,-1,-1,-1,-1,-1,-1,-1],"split_conditions":[-1.4993915E-1,-2.7548173E-1,1.8810239E-2,3.984692E-1,2.00001E0,-3.373926E-2,3.3597195E-1,2.00001E0,1.6950955E0,2.00001E0,2.00001E0,-7.134708E-1,2.208047E-1,-8.4584177E-1,-1.380641E0,2.00001E0,2.00001E0,-3.4013784E-1,-1.4400631E0,7.363472E-2,2.00001E0,-1.1005955E0,-4.4969422E-1,-1.4004483E0,2.00001E0,2.00001E0,2.00001E0,-1.6477464E0,2.00001E0,1.4187157E0,2.00001E0,7.044462E-2,-1.0790818E0,2.00001E0,2.00001E0,2.00001E0,6.8794245E-1,-1.5192926E0,-6.279606E-1,2.00001E0,-1.3192605E0,-9.338883E-2,2.00001E0,-7.134708E-1,-2.4633308E-1,2.00001E0,2.00001E0,2.00001E0,2.00001E0,6.000968E-1,2.00001E0,2.00001E0,2.00001E0,2.00001E0,2.00001E0,2.00001E0,2.00001E0,-2.1148841E0,2.00001E0,2.00001E0,-1.1806086E0,2.4187274E-3,-8.2883105E-2,-1.0534704E-1,4.426832E-2,3.366543E-2,6.563604E-2,-1.13407984E-1,5.764997E-2,-1.2404131E-2,3.8543314E-2,5.961963E-3,5.3809196E-2,-1.7536245E-2,-4.486204E-2,-8.303468E-2,3.982526E-2,7.5876154E-2,-7.486153E-2,8.269614E-2,-7.7295445E-2,8.613998E-3,4.4913884E-2,-4.7374655E-2,1.4975274E-2,-5.853218E-2,2.9731242E-2,9.744733E-2,-3.8064245E-2,6.6731945E-2,-1.0875369E-2,-7.433385E-2,2.7360676E-2,9.0346165E-2,-6.2474143E-2,1.1938895E-2,-5.3202208E-2,-8.003386E-2,6.356218E-2,2.3892738E-2,-1.7571036E-2,3.276829E-2,-5.4848738E-2,5.2700378E-2,-2.9811168E-3,7.622289E-2,-2.840215E-2,2.5912529E-2,-4.954907E-2,-6.633851E-2,-8.982593E-3,4.90625E-2,-6.49255E-2,9.184925E-2,-3.9187137E-2,-7.0708334E-2,-5.867086E-2],"split_indices":[157,157,157,154,1,153,157,9,154,56,11,155,155,153,153,141,65,157,153,0,19,158,153,153,151,23,5,155,9,157,137,0,154,25,37,49,155,153,153,65,158,0,90,155,155,112,44,25,76,153,98,104,138,93,98,19,85,155,49,70,155,0,0,0,0,0,0,0,0,0,0,0,0,0,0,0,0,0,0,0,0,0,0,0,0,0,0,0,0,0,0,0,0,0,0,0,0,0,0,0,0,0,0,0,0,0,0,0,0,0,0,0,0,0,0,0,0],"split_type":[0,0,0,0,0,0,0,0,0,0,0,0,0,0,0,0,0,0,0,0,0,0,0,0,0,0,0,0,0,0,0,0,0,0,0,0,0,0,0,0,0,0,0,0,0,0,0,0,0,0,0,0,0,0,0,0,0,0,0,0,0,0,0,0,0,0,0,0,0,0,0,0,0,0,0,0,0,0,0,0,0,0,0,0,0,0,0,0,0,0,0,0,0,0,0,0,0,0,0,0,0,0,0,0,0,0,0,0,0,0,0,0,0,0,0,0,0],"sum_hessian":[1.7811236E4,8.349503E3,9.461732E3,3.9198484E3,4.429655E3,4.9995645E3,4.462168E3,2.1941853E3,1.7256631E3,2.049724E2,4.2246826E3,1.5543572E3,3.4452073E3,2.904643E3,1.5575251E3,3.4320473E1,2.1598647E3,1.6220724E3,1.0359065E2,9.199123E0,1.9577327E2,7.7195045E1,4.1474873E3,3.1976544E2,1.2345917E3,7.311297E2,2.7140776E3,4.9984982E2,2.4047932E3,2.1984595E2,1.3376792E3,1.6950525E1,1.7369947E1,9.167184E1,2.0681929E3,7.997002E2,8.223722E2,3.2886116E1,7.070454E1,7.368804E1,1.2208523E2,4.5774662E1,3.1420382E1,9.043107E2,3.2431768E3,6.1523655E1,2.582418E2,4.4734244E2,7.8724927E2,1.3525869E1,7.176038E2,1.03497116E2,2.6105806E3,8.6176674E1,4.1367316E2,1.1694867E2,2.2878445E3,1.4159401E2,7.825195E1,3.1377731E1,1.3063014E3,1.1938783E0,1.617607E1,1.3232425E1,7.843941E1,1.631315E2,1.9050615E3,8.608139E0,7.9109204E2,1.5648302E2,6.6588916E2,2.7442987E1,5.443126E0,4.8931038E1,2.1773499E1,2.9266838E1,4.44212E1,5.871605E0,1.1621362E2,1.0569403E1,2.0850979E1,1.6014975E2,7.44161E2,9.54237E1,3.147753E3,5.716426E0,5.5807228E1,6.393437E0,2.5184834E2,3.350084E1,4.1384158E2,2.3793945E1,7.634553E2,1.0222035E1,3.303834E0,2.8764343E1,6.888395E2,1.0817989E1,9.267913E1,2.5707187E2,2.3535088E3,1.1352207E1,7.482447E1,2.7673256E1,3.859999E2,3.534583E1,8.160284E1,4.5909172E1,2.2419353E3,2.3595247E1,1.1799876E2,1.5927318E0,7.665922E1,3.4124343E0,2.7965298E1,8.266491E2,4.796523E2],"tree_param":{"num_deleted":"0","num_feature":"160","num_nodes":"117","size_leaf_vector":"1"}},{"base_weights":[2.7484503E-3,7.0871145E-1,-4.6361783E-1,1.1130148E0,4.4646633E-1,-7.168978E-2,-8.157157E-1,1.1654677E0,-2.9461214E-1,3.0619282E-1,8.506299E-1,2.50125E-1,-2.224509E-1,-6.1631536E-1,-1.0850589E0,2.7201262E-1,1.203788E0,1.1745794E-1,-5.6827897E-1,-1.2685721E0,3.4391424E-1,2.62395E-1,9.29606E-1,5.291808E-2,5.72681E-1,-5.2122825E-1,-6.915717E-2,-3.1396154E-1,-8.806318E-1,-8.431942E-1,-1.2245725E0,-1.9717762E0,6.3343155E-1,5.268385E-1,1.2559015E0,-3.549049E-2,1.960369E-1,4.471438E-2,-6.2062085E-1,-6.275785E-1,-9.572188E-2,-1.4285657E0,3.77382E-1,-1.1111047E-1,4.661976E-1,-1.633575E0,9.463913E-1,-8.2965994E-1,1.4414813E-1,-1.1932139E0,6.319784E-1,1.2913324E0,-6.990415E-1,9.108637E-2,-9.899466E-2,1.0232573E0,-3.727286E-1,2.1587336E0,-9.082367E-1,-4.517048E-1,-1.1797292E0,1.771974E-1,-1.2450511E0,-1.10871054E-1,-3.6314304E-3,-1.0224042E-1,5.320234E-2,-1.11315146E-1,4.0248614E-2,-2.9493496E-2,6.38907E-2,-2.4989057E-2,1.519856E-2,2.3216238E-2,-3.3330392E-2,-5.094303E-2,7.197739E-2,1.0772454E-2,-9.3009E-2,7.607192E-2,1.6550267E-2,-8.759182E-2,3.319741E-2,-2.3891384E-2,-8.9744054E-2,-1.3191863E-2,4.913723E-2,8.359448E-2,-5.4466028E-2,5.6714214E-2,1.4817643E-3,3.7784718E-2,-9.834667E-2,-8.8323876E-2,3.381018E-2,-7.6334685E-2,7.418343E-2,1.6136907E-2,-4.286403E-2,-8.42163E-2,-3.5616017E-3,-2.9394913E-2,7.8406565E-2,3.497984E-2,-2.2867138E-2,1.1919602E-1,-1.8423496E-2,-5.2621667E-3,-5.09842E-2,6.1646115E-2,-2.6025405E-2,-7.096883E-3,-6.220609E-2,-3.7481423E-2,7.947072E-2,-2.4330033E-2,-6.361219E-2],"categories":[],"categories_nodes":[],"categories_segments":[],"categories_sizes":[],"default_left":[0,0,0,0,0,0,0,0,0,0,0,0,0,0,0,0,0,0,0,0,0,0,0,0,0,0,0,0,0,0,0,0,0,0,0,0,0,0,0,0,0,0,0,0,0,0,0,0,0,0,0,0,0,0,0,0,0,0,0,0,0,0,0,0,0,0,0,0,0,0,0,0,0,0,0,0,0,0,0,0,0,0,0,0,0,0,0,0,0,0,0,0,0,0,0,0,0,0,0,0,0,0,0,0,0,0,0,0,0,0,0,0,0,0,0,0,0],"id":13,"left_children":[1,3,5,7,9,11,13,15,17,19,21,23,25,27,29,31,33,35,37,39,41,43,45,47,49,51,53,55,57,59,61,63,65,67,69,-1,71,-1,73,75,-1,77,79,-1,81,83,85,87,89,91,93,95,97,-1,99,101,103,105,107,109,111,113,115,-1,-1,-1,-1,-1,-1,-1,-1,-1,-1,-1,-1,-1,-1,-1,-1,-1,-1,-1,-1,-1,-1,-1,-1,-1,-1,-1,-1,-1,-1,-1,-1,-1,-1,-1,-1,-1,-1,-1,-1,-1,-1,-1,-1,-1,-1,-1,-1,-1,-1,-1,-1,-1,-1],"loss_changes":[5.7874893E3,7.409387E2,1.460717E3,2.0343188E2,2.4030762E2,2.431525E2,2.9880322E2,9.046997E1,1.1300076E1,1.8764844E2,5.0520203E1,1.0167811E2,1.5626353E2,2.5596448E2,7.896265E1,9.074392E1,8.9038086E1,2.7772565E0,5.15053E0,2.940918E1,1.8316766E2,6.723665E1,4.297711E1,8.0103485E1,6.42688E1,3.738115E2,1.2749426E2,1.1803087E2,1.4545056E2,1.14147644E2,4.3315918E1,7.0947075E0,1.1266719E2,1.422828E2,9.6211914E1,0E0,2.9942389E0,0E0,3.2306042E0,3.2685425E1,0E0,4.1033073E1,1.5985693E2,0E0,5.452172E1,3.7875366E-1,4.2378784E1,6.236664E1,1.02142914E2,3.172352E1,6.351271E1,5.8480362E1,1.7074438E2,0E0,9.7697174E1,5.6483658E1,1.305067E2,9.807098E0,1.5162866E2,4.7467247E1,3.1061523E1,3.0630144E1,2.9899902E1,0E0,0E0,0E0,0E0,0E0,0E0,0E0,0E0,0E0,0E0,0E0,0E0,0E0,0E0,0E0,0E0,0E0,0E0,0E0,0E0,0E0,0E0,0E0,0E0,0E0,0E0,0E0,0E0,0E0,0E0,0E0,0E0,0E0,0E0,0E0,0E0,0E0,0E0,0E0,0E0,0E0,0E0,0E0,0E0,0E0,0E0,0E0,0E0,0E0,0E0,0E0,0E0,0E0,0E0],"parents":[2147483647,0,0,1,1,2,2,3,3,4,4,5,5,6,6,7,7,8,8,9,9,10,10,11,11,12,12,13,13,14,14,15,15,16,16,17,17,18,18,19,19,20,20,21,21,22,22,23,23,24,24,25,25,26,26,27,27,28,28,29,29,30,30,31,31,32,32,33,33,34,34,36,36,38,38,39,39,41,41,42,42,44,44,45,45,46,46,47,47,48,48,49,49,50,50,51,51,52,52,54,54,55,55,56,56,57,57,58,58,59,59,60,60,61,61,62,62],"right_children":[2,4,6,8,10,12,14,16,18,20,22,24,26,28,30,32,34,36,38,40,42,44,46,48,50,52,54,56,58,60,62,64,66,68,70,-1,72,-1,74,76,-1,78,80,-1,82,84,86,88,90,92,94,96,98,-1,100,102,104,106,108,110,112,114,116,-1,-1,-1,-1,-1,-1,-1,-1,-1,-1,-1,-1,-1,-1,-1,-1,-1,-1,-1,-1,-1,-1,-1,-1,-1,-1,-1,-1,-1,-1,-1,-1,-1,-1,-1,-1,-1,-1,-1,-1,-1,-1,-1,-1,-1,-1,-1,-1,-1,-1,-1,-1,-1,-1],"split_conditions":[-1.810331E-1,-3.219665E-1,-3.677458E-2,1.6950955E0,-5.428756E-2,-1.3931883E-2,1.8344985E-1,2.00001E0,-1.3410262E0,2.00001E0,2.00001E0,-6.0986448E-2,2.00001E0,2.2375666E-1,-8.6564916E-1,2.00001E0,2.00001E0,2.00001E0,2.00001E0,2.00001E0,2.00001E0,2.00001E0,2.00001E0,2.00001E0,2.00001E0,2.00001E0,2.00001E0,2.00001E0,2.00001E0,6.1353976E-1,2.00001E0,-4.5334324E-2,2.00001E0,2.00001E0,2.00001E0,-3.549049E-2,2.00001E0,4.471438E-2,2.00001E0,-6.434274E-2,-9.572188E-2,2.00001E0,2.00001E0,-1.1111047E-1,2.00001E0,-2.5195283E-1,2.00001E0,2.00001E0,2.00001E0,-4.2148337E-2,2.00001E0,2.00001E0,2.00001E0,9.108637E-2,2.00001E0,-8.161165E-2,2.00001E0,1.397119E-1,2.00001E0,2.00001E0,-1.6579443E0,-5.466481E-2,2.00001E0,-1.10871054E-1,-3.6314304E-3,-1.0224042E-1,5.320234E-2,-1.11315146E-1,4.0248614E-2,-2.9493496E-2,6.38907E-2,-2.4989057E-2,1.519856E-2,2.3216238E-2,-3.3330392E-2,-5.094303E-2,7.197739E-2,1.0772454E-2,-9.3009E-2,7.607192E-2,1.6550267E-2,-8.759182E-2,3.319741E-2,-2.3891384E-2,-8.9744054E-2,-1.3191863E-2,4.913723E-2,8.359448E-2,-5.4466028E-2,5.6714214E-2,1.4817643E-3,3.7784718E-2,-9.834667E-2,-8.8323876E-2,3.381018E-2,-7.6334685E-2,7.418343E-2,1.6136907E-2,-4.286403E-2,-8.42163E-2,-3.5616017E-3,-2.9394913E-2,7.8406565E-2,3.497984E-2,-2.2867138E-2,1.1919602E-1,-1.8423496E-2,-5.2621667E-3,-5.09842E-2,6.1646115E-2,-2.6025405E-2,-7.096883E-3,-6.220609E-2,-3.7481423E-2,7.947072E-2,-2.4330033E-2,-6.361219E-2],"split_indices":[157,157,157,154,156,153,157,65,153,79,27,156,151,153,153,35,37,126,4,18,11,47,48,104,150,25,113,5,77,157,85,156,25,11,9,0,19,0,99,156,0,132,2,0,53,157,60,37,132,156,69,75,13,0,66,156,61,157,35,84,153,156,9,0,0,0,0,0,0,0,0,0,0,0,0,0,0,0,0,0,0,0,0,0,0,0,0,0,0,0,0,0,0,0,0,0,0,0,0,0,0,0,0,0,0,0,0,0,0,0,0,0,0,0,0,0,0],"split_type":[0,0,0,0,0,0,0,0,0,0,0,0,0,0,0,0,0,0,0,0,0,0,0,0,0,0,0,0,0,0,0,0,0,0,0,0,0,0,0,0,0,0,0,0,0,0,0,0,0,0,0,0,0,0,0,0,0,0,0,0,0,0,0,0,0,0,0,0,0,0,0,0,0,0,0,0,0,0,0,0,0,0,0,